{
  "cnn.0": {
    "weights": [
      0.03257013484835625, -0.18839767575263977, -0.4544420838356018,
      0.09777781367301941, 0.014745623804628849, -0.19889295101165771,
      0.09480923414230347, 0.0359145849943161, -0.2235925793647766,
      -0.07840552181005478, -0.1742827594280243, -0.23418162763118744,
      0.26087525486946106, 0.059976182878017426, -0.3255479633808136,
      0.12009251862764359, 0.04936550557613373, 0.02778937853872776,
      0.27618804574012756, 0.1700633317232132, -0.2104118913412094,
      0.4746381640434265, 0.30445483326911926, 0.29424628615379333,
      0.34106969833374023, 0.4363093078136444, 0.2879805564880371,
      0.054375261068344116, -0.260680615901947, -0.03588822856545448,
      -0.10778962075710297, -0.32113006711006165, -0.31229013204574585,
      -0.29785028100013733, -0.304874062538147, -0.22566105425357819,
      -0.11816408485174179, 0.06499732285737991, -0.03394969180226326,
      -0.17100408673286438, -0.28602334856987, 0.058734554797410965,
      -0.22179393470287323, -0.39838072657585144, 0.13201716542243958,
      -0.10741590708494186, -0.2175205945968628, 0.25273120403289795,
      0.10817448794841766, -0.10820004343986511, 0.12499994784593582,
      0.04680950939655304, -0.20931178331375122, -0.07311448454856873,
      0.32351839542388916, 0.1462017446756363, 0.3257463276386261,
      0.3707282841205597, 0.2338881492614746, 0.36880961060523987,
      0.37616702914237976, 0.35935693979263306, 0.4316827952861786,
      0.025777511298656464, -0.1577625274658203, -0.157260462641716,
      -0.24475960433483124, -0.11961548030376434, -0.13937033712863922,
      -0.12169571220874786, -0.0919933021068573, -0.1772679090499878,
      -0.2304905354976654, -0.08868325501680374, -0.08128656446933746,
      -0.17629459500312805, -0.13889162242412567, -0.28249391913414,
      -0.14735689759254456, -0.15710270404815674, -0.07218949496746063,
      -0.19676510989665985, -0.068170465528965, -0.09926993399858475,
      -0.23618394136428833, -0.01420885045081377, -0.30217188596725464,
      -0.17548035085201263, -0.01112379226833582, -0.3475547730922699,
      0.2584298253059387, 0.17027881741523743, 0.10694409906864166,
      0.21561208367347717, 0.07130371034145355, 0.11397750675678253,
      0.0575057789683342, 0.04034914821386337, 0.0733426958322525,
      0.16985297203063965, 0.21580837666988373, -0.13802331686019897,
      0.15171903371810913, 0.27575913071632385, 0.16366861760616302,
      -0.0727463811635971, -0.010410198010504246, -0.15235307812690735,
      -0.24186669290065765, 0.057073988020420074, 0.16795344650745392,
      -0.3483564555644989, -0.07124557346105576, 0.380318284034729,
      -0.021663954481482506, 0.12009648978710175, 0.11708524823188782,
      -0.4027826189994812, 0.18880926072597504, 0.14022861421108246,
      -0.270588219165802, 0.14458633959293365, 0.3158953785896301,
      -0.42467114329338074, -0.07269833236932755, 0.15563838183879852,
      -0.13178867101669312, 0.10528742522001266, 0.2097792625427246,
      -0.2510036528110504, 0.19968542456626892, 0.36617153882980347,
      -0.3378211259841919, 0.0792207196354866, 0.15968486666679382,
      0.37671521306037903, 0.2564921975135803, -0.014186621643602848,
      0.280800461769104, 0.09446528553962708, 0.23407045006752014,
      -0.06626496464014053, 0.10668215155601501, 0.09668602049350739,
      0.1769016981124878, -0.2653524875640869, -0.24070331454277039,
      0.1247679740190506, -0.27430257201194763, -0.2703801095485687,
      -0.30445539951324463, -0.31674811244010925, -0.07888203114271164,
      0.24481143057346344, -0.1680191308259964, -0.04971892014145851,
      -0.09697119146585464, -0.18948906660079956, -0.0012245479738339782,
      -0.14552083611488342, -0.07563991099596024, 0.10816837847232819,
      -0.30964770913124084, -0.3891163468360901, -0.06396239250898361,
      -0.2552933096885681, 0.12617281079292297, 0.24474860727787018,
      0.21076850593090057, 0.36282217502593994, 0.48919835686683655,
      -0.03299682214856148, -0.31814712285995483, -0.26287904381752014,
      -0.31435060501098633, -0.1364411860704422, 0.22168521583080292,
      -0.11629605293273926, 0.0789269208908081, 0.09122369438409805,
      -0.1785469651222229, -0.3625347316265106, -0.22874632477760315,
      -0.26207053661346436, -0.08544569462537766, -0.057694293558597565,
      0.18852268159389496, -0.06328743696212769, 0.11213336884975433,
      -0.10616730898618698, -0.035903409123420715, 0.30875691771507263,
      -0.17203068733215332, -0.01864551194012165, 0.10345479100942612,
      -0.13965223729610443, -0.11756771802902222, 0.18026255071163177,
      -0.11697421967983246, 0.10707119852304459, 0.4160335659980774,
      0.012558535672724247, 0.16140727698802948, 0.23473511636257172,
      0.14227057993412018, 0.13772936165332794, 0.40781471133232117,
      -0.41468438506126404, -0.3403048515319824, 0.009783637709915638,
      -0.38810333609580994, -0.11779418587684631, -0.027726054191589355,
      -0.0989394262433052, -0.2013864517211914, -0.11883807182312012,
      0.4280484914779663, 0.25818538665771484, 0.06001261621713638,
      0.42105910181999207, 0.21866394579410553, -0.17950311303138733,
      0.36695387959480286, 0.12149421870708466, -0.13591264188289642,
      0.25139033794403076, -0.21052271127700806, -0.004924193490296602,
      0.040105510503053665, -0.10258638113737106, -0.275845468044281,
      0.03323083370923996, 0.053927257657051086, -0.30840954184532166,
      -0.08730378746986389, -0.08143261075019836, -0.38878756761550903,
      0.03417988121509552, -0.09564240276813507, -0.17372557520866394,
      0.16940808296203613, -0.03222407028079033, -0.3321175277233124,
      -0.10512252151966095, -0.02110493928194046, 0.09728861600160599,
      -0.09222707897424698, 0.17177215218544006, 0.2969256341457367,
      0.31930723786354065, 0.3258979618549347, 0.05381370335817337,
      -0.4891519248485565, -0.0738585889339447, -0.04269246757030487,
      -0.05321453884243965, 0.02635621279478073, 0.061095770448446274,
      0.07256320118904114, -0.07950712740421295, -0.14314500987529755,
      -0.4618992805480957, -0.1355338841676712, 0.2058076411485672,
      -0.09116481989622116, 0.42025548219680786, 0.3964812755584717,
      0.35976263880729675, 0.5326966047286987, 0.4935748875141144,
      -0.02688758075237274, -0.04896630719304085, 0.17452843487262726,
      -0.30372512340545654, -0.22241930663585663, 0.01572585478425026,
      0.09103987365961075, -0.2754058241844177, 0.1741761416196823,
      -0.200551375746727, -0.16499115526676178, 0.1203722283244133,
      -0.331008642911911, -0.37678807973861694, -0.13162624835968018,
      -0.36994263529777527, -0.29450103640556335, -0.0442579910159111,
      -0.16135245561599731, -0.218486025929451, 0.29864436388015747,
      -0.28425663709640503, -0.19593557715415955, 0.047838207334280014,
      -0.17530275881290436, -0.28233006596565247, 0.21493491530418396,
      -0.27297747135162354, -0.31514301896095276, -0.20553892850875854,
      -0.3428941071033478, -0.21606799960136414, -0.14755475521087646,
      0.1054757833480835, 0.1949263960123062, 0.22841331362724304,
      0.014295668341219425, 0.04566926509141922, -0.2503589689731598,
      -0.30073171854019165, -0.13209626078605652, -0.09929493814706802,
      0.13181139528751373, -0.06501034647226334, -0.019073383882641792,
      0.1041409969329834, 0.05623866245150566, -0.01494203507900238,
      -0.046010229736566544, 0.21676257252693176, 0.1429317444562912,
      0.34949442744255066, 0.2989835739135742, 0.2649773359298706,
      0.24614007771015167, 0.20390568673610687, 0.2790096402168274,
      0.3092045485973358, 0.11825353652238846, -0.011320739984512329,
      -0.28365954756736755, -0.4686832129955292, -0.44135671854019165,
      0.3704807162284851, 0.3477935791015625, 0.264004111289978,
      0.19193881750106812, -0.12278681993484497, -0.22428056597709656,
      -0.04370633140206337, -0.27599212527275085, -0.43552738428115845,
      -0.05470176786184311, 0.15668369829654694, 0.37001097202301025,
      -0.060000885277986526, -0.035256531089544296, 0.049923382699489594,
      0.04090031608939171, -0.2741832137107849, -0.25764191150665283,
      0.09496831148862839, -0.113634392619133, -0.31390222907066345,
      0.13110895454883575, -0.21319927275180817, -0.3902219831943512,
      0.6221647262573242, 0.19830884039402008, 0.004039514344185591,
      0.20640306174755096, -0.28468218445777893, -0.1397390365600586,
      0.2573091387748718, -0.3714890778064728, -0.2290058732032776,
      0.5053979158401489, 0.20765110850334167, -0.12470546364784241,
      0.26773926615715027, -0.09573778510093689, -0.28018543124198914,
      0.23096533119678497, -0.2012178599834442, -0.43508675694465637,
      0.14010293781757355, 0.15270142257213593, 0.16125479340553284,
      0.12200745195150375, 0.18630167841911316, -0.15858611464500427,
      0.14390753209590912, 0.16336087882518768, 0.13828617334365845,
      -0.060307376086711884, 0.04901505261659622, -0.15166987478733063,
      -0.10219596326351166, 0.22702237963676453, 0.021412519738078117,
      0.1933739185333252, 0.2186153531074524, 0.02810978703200817,
      0.14975981414318085, 0.22797472774982452, -0.14536426961421967,
      -0.11592209339141846, -0.18956825137138367, -0.09768835455179214,
      -0.0296185202896595, -0.2067253440618515, -0.13522544503211975,
      -0.07600951194763184, -0.2182806432247162, -0.10286889225244522,
      0.09835221618413925, -0.02301807887852192, 0.1015511229634285,
      0.23983825743198395, 0.42933639883995056, 0.3446521759033203,
      0.10070629417896271, 0.38013434410095215, 0.26183760166168213,
      0.3589324951171875, 0.18417590856552124, 0.1449815332889557,
      0.4388342797756195, 0.45835983753204346, 0.4278523325920105,
      0.12680785357952118, 0.4217325448989868, 0.2180354744195938,
      0.19549229741096497, 0.15586721897125244, -0.08084649592638016,
      0.2596878707408905, 0.34490686655044556, 0.27089831233024597,
      -0.14366140961647034, 0.18119630217552185, -0.12243358045816422
    ],
    "bias": [
      -0.018064461648464203, -0.07943365722894669, -0.19575192034244537,
      0.39256733655929565, 0.34572434425354004, -0.10493851453065872,
      -0.1615069955587387, 0.1851443499326706, 0.1551591008901596,
      0.1275836080312729, -0.09352060407400131, 0.10366054624319077,
      -0.06352744251489639, -0.015238042920827866, 0.3724653124809265,
      0.22669334709644318
    ]
  },
  "cnn.3": {
    "weights": [
      -2.158433154431094e-12, -4.1290020014184137e-11, -9.634136821645711e-10,
      -1.779533551765633e-12, -6.731750573640838e-11, -1.5445449086382013e-10,
      -8.566218481081966e-13, -2.4507946019824978e-11, -5.6706993267763295e-11,
      -1.972208983310516e-14, -4.0678498438619093e-13, -9.688556380782476e-13,
      -7.251710625218177e-13, -5.073024465784837e-12, -5.085047834196832e-12,
      8.579241375476776e-13, -1.106902330211268e-11, -6.811039145876441e-12,
      5.943744341152524e-8, -4.535509674497007e-7, -1.1389220588853277e-7,
      -3.543200080002862e-7, -1.2706959751085378e-6, -6.148759439383866e-7,
      -1.1774275208153995e-6, -5.5263280955841765e-6, -2.9169750632718205e-6,
      -1.0789123194854255e-7, -1.0950085425065481e-6, 3.762735616419377e-7,
      -4.68756624627531e-8, -2.893427506478474e-7, -5.16489762958372e-7,
      -2.584218350420997e-8, -2.919340147400362e-7, -1.8006217317179107e-7,
      -1.2574065522130695e-7, -7.338119303312851e-7, -1.7699618410915718e-6,
      -1.5375943007711612e-7, -3.4798856063389394e-7, 7.800232282306752e-8,
      -4.021275046284245e-8, -2.404960639523779e-7, -3.093424254529964e-7,
      5.3086218088083115e-8, -7.220210651581738e-9, 7.062019591330682e-8,
      -4.863795410869898e-8, 1.0173131670399016e-7, 1.6694745852419146e-7,
      9.820117163883424e-9, 2.112374488660862e-7, 3.2344395606287435e-8,
      -2.1032542463217396e-6, -4.166723101661773e-6, -7.49340597394621e-6,
      -8.330966920766514e-6, -6.46407079329947e-6, 1.99322062144347e-6,
      6.02692125539761e-7, 7.742840352875646e-6, 1.0058024599857163e-5,
      -1.6431275071226992e-5, -2.9424918466247618e-5, -7.572893082397059e-5,
      0.0001770997914718464, -0.0002534310333430767, -7.875152368796989e-5,
      -6.969495007069781e-5, -0.00012094182602595538, -3.919643131666817e-5,
      1.941363916557748e-5, 2.590918848000001e-5, 1.2375985534163192e-5,
      1.714406425890047e-5, 2.7771975510404445e-5, -6.69722503516823e-5,
      2.735912858042866e-6, 1.0430107067804784e-5, -1.5422529031638987e-5,
      -1.210769596582395e-6, -1.8425787402520655e-6, -7.326690933950886e-7,
      -7.389717211481184e-7, -3.6866233585897135e-6, -4.5510491872846615e-6,
      -7.878838914621156e-7, -2.0940644844813505e-6, -4.628025180863915e-6,
      -5.133820764058328e-7, -3.539433464538888e-6, -7.604405709571438e-6,
      -5.209402843320277e-6, 1.2587140190589707e-5, -6.250996648304863e-6,
      -2.3089810383680742e-6, 1.122186745305953e-6, -1.2663194866036065e-6,
      -1.383266479520696e-19, -5.2137913656350255e-18, -3.5148144998296975e-17,
      -9.741039366463289e-18, -4.177012946592289e-17, -5.7436638272921e-18,
      2.897093660483201e-15, -7.794833402601908e-16, 1.538741651322317e-15,
      -8.413295017259403e-13, -7.027775496964983e-12, -5.911626743682064e-11,
      -1.2648150755911747e-11, -2.4765517761538014e-11, -7.944173097129692e-12,
      -1.0171791360591431e-11, -2.883354388583115e-10, -6.221537868222882e-11,
      8.133172160181925e-38, -1.2042421671976004e-33, -9.932491596854556e-33,
      -3.730431689676514e-33, -1.8620017420626815e-31, -1.009987003175663e-30,
      -4.283436907780341e-27, -9.391272750487505e-27, -2.434670809118031e-29,
      0.00011746667587431148, 0.00015711160085629672, 5.5797954701120034e-5,
      -2.5515357265248895e-5, -0.00016807981592137367, -6.499393202830106e-5,
      -0.0001070306243491359, -0.00016282319847960025, -4.474080560612492e-5,
      -0.00015183334471657872, 0.00016131263691931963, 1.2334068742347881e-5,
      -0.00014370610006153584, -0.00020393972226884216, -0.00014152673247735947,
      -8.318811160279438e-5, -0.00012455187970772386, -0.00017704976198729128,
      -0.07837918400764465, -0.12112324684858322, -0.18629321455955505,
      0.015259277075529099, -0.1452198624610901, 0.12591585516929626,
      0.040100183337926865, -0.07067859917879105, -0.009197375737130642,
      0.013468308374285698, -0.02915286459028721, -0.036055564880371094,
      0.012766726315021515, -0.02825339324772358, 0.08382372558116913,
      -0.06899778544902802, -0.11782851815223694, -0.08774407207965851,
      -0.0055793942883610725, 0.21623706817626953, -0.003057116875424981,
      0.16892077028751373, 0.4455004930496216, 0.14992399513721466,
      -0.04946081340312958, 0.19274196028709412, 0.036364734172821045,
      0.15719133615493774, 0.07864063233137131, 0.08904852718114853,
      -0.04078791290521622, -0.18012945353984833, -0.10530798882246017,
      -0.0115182651206851, -0.1997034251689911, -0.04479003697633743,
      -0.030180612578988075, 0.07691814750432968, -0.052600786089897156,
      -0.022032519802451134, -0.1158837303519249, -0.1017218604683876,
      -0.11153492331504822, -0.20044060051441193, -0.00440713157877326,
      -0.01886718161404133, 0.20432467758655548, 0.21309582889080048,
      0.2913486063480377, 0.39645645022392273, 0.43153902888298035,
      0.11974366009235382, 0.26027897000312805, 0.1505231261253357,
      0.16069211065769196, 0.015512158162891865, -0.05324198305606842,
      0.22099782526493073, 0.05315573886036873, 0.05881858244538307,
      0.11348927766084671, -0.04686266556382179, -0.05972754955291748,
      0.019833745434880257, -0.08001112937927246, -0.12439418584108353,
      0.015457837842404842, -0.10339304804801941, -0.2073371708393097,
      -0.07710953056812286, -0.14720825850963593, -0.18193012475967407,
      -0.24017496407032013, -0.0699000358581543, 0.023212648928165436,
      0.04130407050251961, 0.15169644355773926, 0.16199928522109985,
      -0.1827063262462616, 0.10226103663444519, 0.025601044297218323,
      -0.043954037129879, -0.05092474818229675, -0.16232167184352875,
      0.07067608833312988, -0.010265247896313667, 0.011320055462419987,
      -0.10789290070533752, -0.15533894300460815, -0.2161356508731842,
      0.14794129133224487, -0.09424018114805222, 0.051699310541152954,
      0.14358475804328918, 0.06902481615543365, 0.10355493426322937,
      0.08295426517724991, -0.08283428102731705, 0.034554753452539444,
      0.13230714201927185, -0.018407100811600685, 0.04275721311569214,
      0.1036122515797615, 0.10014348477125168, 0.17345759272575378,
      0.09679310768842697, -0.0931403711438179, 0.03718521073460579,
      -0.26826849579811096, 0.08863058686256409, 0.18096362054347992,
      0.08028506487607956, 0.12582381069660187, 0.12028730660676956,
      0.017572609707713127, 0.09504200518131256, 0.06473582983016968,
      -0.2068244218826294, -0.26901042461395264, -0.12155398726463318,
      -0.016662560403347015, -0.037117328494787216, 0.17610985040664673,
      -0.0001918359484989196, -0.05227280035614967, 0.20082412660121918,
      -0.13758352398872375, 0.039176974445581436, -0.036195386201143265,
      0.007898358628153801, 0.12141616642475128, -0.05924041196703911,
      -0.14864781498908997, 0.006155958399176598, -0.10859065502882004,
      0.051269300282001495, -0.04119079187512398, 0.0018494691466912627,
      0.15022432804107666, 0.06162102892994881, 0.043309055268764496,
      -0.04644901677966118, 0.06586025655269623, -0.10229471325874329,
      0.13699442148208618, 0.1348695158958435, 0.17059430480003357,
      0.028693007305264473, 0.14757198095321655, 0.24080094695091248,
      -0.21100583672523499, -0.02433701604604721, 0.10828504711389542,
      0.06687550991773605, 0.08912281692028046, 0.16350536048412323,
      -0.021037060767412186, 0.06138890981674194, 0.08913756906986237,
      -0.03209088742733002, 0.08110825717449188, 0.08668923377990723,
      -0.45940643548965454, -0.2977854609489441, -0.146332249045372,
      -0.3589194118976593, -0.37900450825691223, -0.37384194135665894,
      -0.22343388199806213, -0.29884588718414307, -0.5022991895675659,
      -0.05784624069929123, -0.032484740018844604, -0.1804494708776474,
      -0.17825159430503845, -0.1024642363190651, -0.12277477234601974,
      -0.14956210553646088, -0.0451241210103035, -0.043329183012247086,
      0.12056024372577667, 0.00546393683180213, 0.05161478742957115,
      0.13273274898529053, 0.00991820078343153, -0.04644719511270523,
      0.030918627977371216, -0.03203519806265831, -0.09027304500341415,
      -0.16821056604385376, -0.191134974360466, -0.03099549561738968,
      -0.33928972482681274, -0.28850284218788147, -0.28305917978286743,
      -0.30628374218940735, -0.33024856448173523, -0.364019513130188,
      0.07596264779567719, 0.051875945180654526, -0.02134525775909424,
      -0.04289798438549042, 0.054702695459127426, 0.0305508840829134,
      0.0021680304780602455, -0.011691352352499962, 0.15117135643959045,
      -0.06681803613901138, -0.097109355032444, -0.0016304055461660028,
      -0.08688396215438843, -0.1424064338207245, -0.08288542181253433,
      0.021169457584619522, -0.038754966109991074, -0.08421152830123901,
      -0.052609506994485855, 0.14690908789634705, 0.17247648537158966,
      -0.19979611039161682, -0.12284425646066666, 0.024420609697699547,
      -0.14547966420650482, -0.16451814770698547, -0.08543458580970764,
      0.0929064080119133, 0.06627051532268524, -0.08533317595720291,
      0.04114426672458649, 0.012794111855328083, -0.031971123069524765,
      -0.0522933229804039, 0.0719136968255043, 0.06752067804336548,
      0.06447181850671768, 0.0031418809667229652, 0.11738013476133347,
      0.002345904242247343, 0.10663503408432007, 0.142098069190979,
      -0.048476412892341614, 0.06495031714439392, -0.04779355600476265,
      0.11733760684728622, 0.14565837383270264, 0.06242910772562027,
      -0.1454799473285675, -0.08243487030267715, 0.08149393647909164,
      -0.20925235748291016, -0.21418946981430054, -0.05669882148504257,
      0.023854214698076248, 0.08075527101755142, 0.19074222445487976,
      0.0619487538933754, -0.0225493386387825, 0.003725749207660556,
      -0.07850820571184158, -0.017679933458566666, 0.058344531804323196,
      0.476106196641922, 0.5681878328323364, 0.5107934474945068,
      0.2299448549747467, 0.2796202600002289, 0.3799135088920593,
      -0.07706130295991898, -0.10306663811206818, 0.1077226921916008,
      -0.12907743453979492, -0.09695950150489807, -0.025098880752921104,
      -0.057401955127716064, 0.003813104936853051, -0.09250930696725845,
      -0.0354568175971508, -0.028761396184563637, -0.10248313844203949,
      0.017007259652018547, 0.0328940786421299, -0.17529864609241486,
      -0.00334747857414186, 0.15005914866924286, 0.05865310877561569,
      -0.006536297965794802, 0.1134684607386589, 0.1174963191151619,
      -0.08424215018749237, -0.31053927540779114, -0.11440420895814896,
      -0.2313472330570221, -0.15345633029937744, 0.06373067945241928,
      -0.24547897279262543, -0.014258237555623055, 0.041340917348861694,
      0.04690754786133766, 0.07410138100385666, -0.007940697483718395,
      0.16315968334674835, 0.026253515854477882, -0.22582751512527466,
      -0.042209722101688385, -0.3543892502784729, -0.24627752602100372,
      -0.0028739236295223236, -0.18173570930957794, 0.12376187741756439,
      -0.20187626779079437, -0.1334918737411499, 0.10393540561199188,
      0.036969974637031555, 0.12007031589746475, 0.20930510759353638,
      0.30751392245292664, -0.10971314460039139, -0.1356959342956543,
      0.04409252479672432, -0.1600523591041565, 0.15631639957427979,
      -0.08613003045320511, -0.0632736086845398, 0.030833635479211807,
      -0.22514645755290985, -0.17731815576553345, 0.282746285200119,
      -0.08150264620780945, 0.24991446733474731, 0.25871580839157104,
      0.20736028254032135, 0.18371997773647308, 0.16719751060009003,
      0.3646199703216553, 0.4524180293083191, 0.272079735994339,
      0.37897104024887085, 0.03033789061009884, 0.06615647673606873,
      -0.20597705245018005, -0.2617446780204773, 0.07505068928003311,
      -0.14196261763572693, 0.05195954442024231, 0.3664648234844208,
      0.004940526559948921, 0.2309369593858719, 0.0831439271569252,
      0.22163838148117065, -0.035793691873550415, -0.1566561460494995,
      -0.18716244399547577, 0.008487306535243988, 0.20041316747665405,
      -0.05802476033568382, 0.24272793531417847, 0.08691591769456863,
      0.26329001784324646, 0.17545123398303986, 0.01208996120840311,
      0.22257092595100403, -0.14950788021087646, -0.22469793260097504,
      -0.18853339552879333, -0.5508773922920227, -0.10262507200241089,
      -0.33845192193984985, -0.04861552640795708, 0.3034120202064514,
      -0.17731529474258423, -0.21239671111106873, 0.1283036768436432,
      -0.11188709735870361, 0.074452705681324, 0.18941950798034668,
      0.08270213007926941, 0.11830630898475647, 0.12203481048345566,
      -0.10601315647363663, 0.009523771703243256, 0.1039167195558548,
      0.07067612558603287, -0.012589197605848312, -0.09517806768417358,
      0.016522955149412155, -0.2017601579427719, -0.1284707635641098,
      -0.09818686544895172, 0.19400762021541595, 0.28825679421424866,
      0.20107318460941315, 0.14605814218521118, 0.022926026955246925,
      0.23335035145282745, 0.07549701631069183, -0.30132389068603516,
      0.4614418148994446, 0.10526669770479202, -0.36711305379867554,
      0.2633247673511505, -0.12055090069770813, 0.24572362005710602,
      -0.47909286618232727, -0.2723783552646637, 0.05774699151515961,
      -0.1302940547466278, 0.04372426122426987, -0.23693543672561646,
      -0.2245258092880249, -0.2830902338027954, -0.5270884037017822,
      -0.318910151720047, -0.6699458956718445, -0.4125268757343292,
      0.1220933049917221, -0.09823378920555115, -0.1591269075870514,
      -0.1548938900232315, -0.18928836286067963, -0.009863806888461113,
      -0.07997319102287292, 0.05350222811102867, 0.23229075968265533,
      0.007971612736582756, -0.2912808358669281, 0.04791128262877464,
      -0.22857441008090973, -0.11643905192613602, 0.16836534440517426,
      0.023820243775844574, 0.04334970936179161, 0.13649773597717285,
      -0.029471322894096375, -0.14468786120414734, -0.1306980699300766,
      -0.015505359508097172, -0.05873143672943115, -0.03634757548570633,
      -0.09644363075494766, -0.09290886670351028, -0.01814202032983303,
      0.022654933854937553, -0.18799909949302673, 0.07067826390266418,
      -0.08240172266960144, -0.17517200112342834, 0.07462365180253983,
      -0.14707022905349731, -0.24233543872833252, -0.15158142149448395,
      0.050478894263505936, 0.15742982923984528, 0.18860508501529694,
      0.02435324713587761, 0.10378938913345337, 0.06807578355073929,
      0.08770058304071426, 0.07845085859298706, -0.030490955337882042,
      0.17045675218105316, 0.1247212365269661, 0.13261280953884125,
      0.11737548559904099, 0.0025881826877593994, 0.10318555682897568,
      0.03358590975403786, 0.10052043199539185, 0.14912794530391693,
      0.022025078535079956, 0.10909871757030487, 0.12272030115127563,
      -0.040302809327840805, 0.0863378643989563, 0.06662152707576752,
      0.16809110343456268, 0.1771819293498993, 0.1402101069688797,
      -0.060569435358047485, -0.029070530086755753, 0.053455740213394165,
      -0.06274718791246414, -0.04434991255402565, 0.04535609856247902,
      0.01883404515683651, -0.05139908939599991, -0.040586184710264206,
      0.15839171409606934, 0.02974568121135235, -0.07081760466098785,
      -0.1547548770904541, -0.1460251659154892, -0.20495766401290894,
      -0.06735413521528244, -0.12470757216215134, -0.15604810416698456,
      0.11421188712120056, 0.12664440274238586, -0.10898386687040329,
      -0.0737467035651207, -0.05803217366337776, -0.0785272940993309,
      -0.06476007401943207, -0.02793147601187229, -0.07503010332584381,
      0.180743008852005, 0.2741072475910187, 0.2526986598968506,
      0.1581084430217743, 0.237457275390625, 0.09074969589710236,
      0.11868202686309814, 0.09410195797681808, 0.08524070680141449,
      -0.004187038633972406, -0.050110824406147, 0.02860713005065918,
      0.04291542246937752, 0.08089442551136017, 0.08877597749233246,
      0.06241339445114136, 0.06810244917869568, 0.10157590359449387,
      0.034781526774168015, -0.126227006316185, -0.06375189125537872,
      -0.06305275857448578, -0.25194114446640015, -0.11531781405210495,
      -0.019494425505399704, -0.24328985810279846, -0.19130279123783112,
      -0.26178178191185, -0.34111732244491577, -0.36928606033325195,
      -0.18281817436218262, -0.1928122341632843, -0.14384114742279053,
      -0.17842906713485718, -0.10774216800928116, -0.03858610615134239,
      -0.5344175100326538, -0.36525487899780273, -0.42487668991088867,
      -0.5868392586708069, -0.6307869553565979, -0.7515766024589539,
      -0.3536928594112396, -0.517279326915741, -0.5627050995826721,
      -0.1855122596025467, -0.4974813759326935, -0.4111860692501068,
      -0.5027311444282532, -0.4380023777484894, -0.3677700459957123,
      -0.507007360458374, -0.3947758078575134, -0.13823749125003815,
      0.18937622010707855, 0.23739509284496307, 0.10630188137292862,
      0.1511838436126709, 0.09292780607938766, 0.014911282807588577,
      0.12549740076065063, 0.034047000110149384, 0.08723770081996918,
      -0.04875840246677399, 0.04303346574306488, 0.0607861652970314,
      0.01936948671936989, -0.031207436695694923, -0.026478730142116547,
      0.0035654352977871895, -0.021100925281643867, -0.045016396790742874,
      -0.04362677037715912, 0.07535405457019806, 0.07544298470020294,
      -0.006047341041266918, -0.007701857015490532, 0.012605451047420502,
      -0.01588740386068821, -0.018264101818203926, -0.18374544382095337,
      0.06059081852436066, 0.016022320836782455, -0.17711548507213593,
      -0.04430257901549339, 0.13537834584712982, -0.06745543330907822,
      -0.09637001156806946, -0.08374825119972229, -0.1665446013212204,
      -0.09243538230657578, -0.2420099526643753, -0.05414930358529091,
      -0.1804458349943161, -0.35476863384246826, -0.13806359469890594,
      -0.16933302581310272, -0.14412598311901093, -0.16147972643375397,
      -0.110344797372818, -0.1393101066350937, -0.043545983731746674,
      -0.19402484595775604, -0.1561623215675354, 0.018979106098413467,
      -0.09924145042896271, -0.15275847911834717, -0.05859673395752907,
      0.020421376451849937, 0.25366485118865967, 0.014951375313103199,
      -0.022042443975806236, 0.24899308383464813, 0.24281048774719238,
      0.08768139779567719, -0.0023124569561332464, 0.04405922815203667,
      -0.04923662170767784, 0.2093050181865692, 0.021089008077979088,
      -0.003099512541666627, -0.02336673066020012, -0.11742253601551056,
      0.03642165660858154, -0.09837780147790909, -0.06262315064668655,
      -0.007709102239459753, -0.02345358394086361, 0.023156816139817238,
      0.0535639151930809, 0.07466065883636475, 0.05678613483905792,
      0.05977946147322655, 0.14506487548351288, 0.08796960860490799,
      0.11207883805036545, 0.03251105174422264, -0.015124364756047726,
      -0.08481530100107193, 0.16218417882919312, 0.1424776166677475,
      -0.12290064245462418, 0.0571676641702652, 0.046272967010736465,
      0.12025940418243408, -0.023834357038140297, 0.04421847313642502,
      0.2457028329372406, 0.06245698407292366, -0.03350989148020744,
      0.06835776567459106, 0.03237520530819893, 0.015069516375660896,
      0.0526513010263443, 0.02638847567141056, 0.05190373212099075,
      -0.03586051985621452, 0.019608300179243088, -0.003533599665388465,
      0.028473105281591415, -0.08072277158498764, -0.05251583456993103,
      0.03146011382341385, -0.034444279968738556, -0.13803592324256897,
      0.008312962017953396, 0.1501939296722412, 0.034264832735061646,
      -0.07825743407011032, -0.024761632084846497, 0.025491274893283844,
      -0.18373772501945496, -0.10036952793598175, -0.056841716170310974,
      -0.038736745715141296, -0.09865433722734451, -0.10776510089635849,
      -0.167293980717659, -0.16325411200523376, -0.13444821536540985,
      0.0776657909154892, 0.23632992804050446, 0.00255541130900383,
      0.1644611358642578, 0.1845632791519165, 0.040745191276073456,
      0.15043538808822632, 0.1919182538986206, 0.18471433222293854,
      0.23134949803352356, 0.31841838359832764, 0.4416245222091675,
      0.5998242497444153, 0.5232121348381042, 0.3690546751022339,
      0.3297453224658966, 0.4270651638507843, 0.15210355818271637,
      -0.13487102091312408, -0.12947207689285278, -0.16061396896839142,
      -0.038757532835006714, -0.20171931385993958, -0.0955515056848526,
      -0.010175145231187344, -0.10610336065292358, 0.012992175295948982,
      -0.01103376504033804, 0.11398031562566757, 0.048976052552461624,
      -0.0520298145711422, -0.04390399158000946, 0.05794351547956467,
      0.03682367503643036, -0.06676333397626877, -0.0285755954682827,
      -0.046672653406858444, 0.018483813852071762, 0.016119927167892456,
      -0.14093612134456635, 0.01050959900021553, -0.053859248757362366,
      -0.14854328334331512, -0.12682457268238068, -0.012798779644072056,
      0.018387489020824432, -0.056604404002428055, -0.04970085620880127,
      0.006095480639487505, -0.045806001871824265, 0.03195055574178696,
      0.1386457234621048, 0.06251835078001022, 0.11854002624750137,
      0.010998623445630074, -0.0531744509935379, 0.0775277316570282,
      0.01658109575510025, -0.1060546413064003, -0.11738898605108261,
      0.10498328506946564, -0.023946546018123627, 0.05314627289772034,
      0.14569228887557983, 0.14662420749664307, 0.1792026162147522,
      -0.04715249687433243, 0.009760520420968533, 0.18087084591388702,
      -0.056209515780210495, 0.12893497943878174, 0.17182445526123047,
      0.2020622342824936, 0.2747541666030884, 0.18545138835906982,
      0.05509176105260849, 0.22900928556919098, 0.1073080524802208,
      0.07504238188266754, 0.11714781075716019, 0.029797278344631195,
      -0.08702438324689865, -0.272045761346817, -0.15180151164531708,
      -0.030150923877954483, -0.18181400001049042, -0.10438959300518036,
      0.21029788255691528, 0.0632861778140068, 0.14590492844581604,
      -0.1700482815504074, -0.24679701030254364, -0.2728744149208069,
      -0.07399803400039673, -0.21629706025123596, -0.1240018904209137,
      0.03417536988854408, -0.1370612382888794, 0.03749898821115494,
      0.15407006442546844, 0.056696776300668716, 0.0007965670083649457,
      0.000765955715905875, -0.05003810301423073, -0.12839850783348083,
      0.15405388176441193, -0.05091433972120285, -0.06437496095895767,
      0.03659892827272415, -0.012955592013895512, 0.12394177168607712,
      0.11933153867721558, -0.02517029270529747, 0.053666308522224426,
      0.15397387742996216, 0.03180000185966492, 0.20688965916633606,
      -0.07616721838712692, 0.14292001724243164, 0.08536452054977417,
      -0.0502435639500618, 0.07660704106092453, -0.020635658875107765,
      -0.10724826902151108, -0.05179095268249512, -0.1774575114250183,
      0.1170237585902214, 0.0468461848795414, -0.1330658346414566,
      0.028853952884674072, -0.005447709001600742, -0.09153520315885544,
      0.1664813905954361, 0.07262753695249557, 0.11794427037239075,
      -0.09357856214046478, 0.08468195796012878, 0.037468403577804565,
      -0.11334321647882462, 0.10036267340183258, 0.0809755027294159,
      -0.09132396429777145, 0.007996028289198875, 0.09042815119028091,
      -0.2793399393558502, -0.23384687304496765, -0.11564555019140244,
      -0.38526463508605957, -0.21682563424110413, 0.025934314355254173,
      -0.27251848578453064, -0.23365558683872223, -0.08666863292455673,
      -0.88554447889328, -0.8891535401344299, -0.49603456258773804,
      -1.0012598037719727, -1.1013826131820679, -0.5219665765762329,
      -0.884231448173523, -0.941370964050293, -0.3869784474372864,
      0.19997406005859375, 0.0727730244398117, 0.16545185446739197,
      0.03580576553940773, 0.05571000277996063, 0.04855918511748314,
      0.15333682298660278, -0.023238379508256912, 0.12330713868141174,
      0.03142644464969635, 0.10188226401805878, 0.06532374024391174,
      -0.06669291108846664, -0.0717446580529213, -0.04052986949682236,
      -0.12108562886714935, -0.10536620765924454, -0.18249820172786713,
      -0.2943263649940491, -0.11595118045806885, -0.11074981838464737,
      -0.17628680169582367, -0.1556030809879303, -0.017370102927088737,
      -0.0418984480202198, 0.004115578252822161, -0.02708849310874939,
      -0.13699136674404144, -0.07814408838748932, -0.20590761303901672,
      -0.10423685610294342, -0.03733395040035248, -0.15282201766967773,
      -0.04825614392757416, -0.05998913198709488, 0.02245902083814144,
      0.04682499170303345, 0.05590629577636719, -0.03972337394952774,
      -0.154575914144516, -0.12755420804023743, -0.07187391072511673,
      -0.23935462534427643, -0.2710423767566681, -0.19525687396526337,
      -0.1352739930152893, -0.1713176816701889, -0.13708710670471191,
      -0.1875143200159073, -0.29585325717926025, -0.23581960797309875,
      -0.205601766705513, -0.18000179529190063, -0.23351772129535675,
      -0.0054104928858578205, 0.09178176522254944, 0.05086832493543625,
      0.11424198001623154, 0.10627556592226028, 0.08655156195163727,
      0.047363750636577606, 0.10999500006437302, 0.012595447711646557,
      0.2095830887556076, 0.06415791064500809, -0.005096000153571367,
      0.2000880241394043, 0.07269290834665298, 0.09579180181026459,
      0.029987959191203117, -0.006603356450796127, 0.07985982298851013,
      0.1470005065202713, 0.06905370950698853, 0.12606313824653625,
      0.05181325599551201, 0.043867189437150955, -0.10709566622972488,
      -0.053302980959415436, 0.022605372592806816, -0.09971290081739426,
      -0.1435868740081787, -0.09183548390865326, 0.04749162495136261,
      -0.07676186412572861, -0.01689080521464348, -0.022278916090726852,
      -0.02433616854250431, -0.017271729186177254, -0.10552584379911423,
      0.12746290862560272, 0.1253429502248764, 0.002975995186716318,
      0.1672360897064209, 0.1882709264755249, 0.12651629745960236,
      0.01254964992403984, 0.08921374380588531, 0.010137147270143032,
      0.10731569677591324, 0.07581926882266998, 0.048225365579128265,
      0.2019357532262802, 0.12429787963628769, -0.04520300030708313,
      0.1184292882680893, 0.14436103403568268, 0.06275413185358047,
      0.04964902624487877, 0.08616466820240021, -0.056747183203697205,
      -0.02802823856472969, 0.05603005364537239, -0.097173310816288,
      -0.00326732499524951, 0.07513003796339035, 0.020456038415431976,
      -0.08817893266677856, -0.12715396285057068, 0.03060818277299404,
      -0.14416062831878662, -0.1366945505142212, -0.1561434119939804,
      -0.11557850986719131, -0.15842607617378235, -0.1872512251138687,
      0.09797823429107666, 0.10231886059045792, -0.058362413197755814,
      0.21763984858989716, 0.23421962559223175, 0.14885291457176208,
      0.10775213688611984, 0.27582722902297974, 0.07930173724889755,
      -0.019974783062934875, 0.2421291172504425, 0.2552286684513092,
      0.0527409091591835, 0.2402006834745407, 0.2640477120876312,
      0.052704330533742905, 0.036763131618499756, 0.19692100584506989,
      0.0429273284971714, 0.06331557780504227, 0.017434775829315186,
      0.08429937064647675, -0.021189332008361816, -0.008455034345388412,
      -0.02354913391172886, 0.06571099162101746, -0.026386167854070663,
      -0.06335636228322983, -0.02576826699078083, -0.04193718358874321,
      -0.023904001340270042, 0.023513352498412132, -0.06532678008079529,
      0.0949208065867424, 0.11323637515306473, 0.0022667529992759228,
      -0.2292918711900711, -0.15325810015201569, -0.16554076969623566,
      -0.06705955415964127, -0.04718288034200668, -0.03892828896641731,
      -0.17684274911880493, -0.16081365942955017, -0.09915884584188461,
      0.07378806173801422, 0.09285128116607666, 0.04402201622724533,
      0.024455739185214043, 0.14904144406318665, 0.1322973221540451,
      -0.052330899983644485, 0.03862063214182854, 0.1111990213394165,
      -0.383447527885437, -0.5961227416992188, -0.5815249681472778,
      -0.4880726635456085, -0.6535724401473999, -0.5917523503303528,
      0.016789322718977928, -0.09629428386688232, -0.2949517071247101,
      0.0899837464094162, 0.19250193238258362, 0.07616248726844788,
      0.14961272478103638, 0.13654696941375732, 0.05711175873875618,
      0.03763492405414581, 0.06567519903182983, 0.06739891320466995,
      0.2014249563217163, 0.04889179766178131, 0.017703542485833168,
      0.1257534921169281, 0.07886384427547455, 0.09099943190813065,
      0.2152143120765686, 0.08065591007471085, -0.02396707609295845,
      -0.3783963918685913, -0.42834392189979553, -0.17546546459197998,
      -0.4318494498729706, -0.40176334977149963, -0.2075895518064499,
      -0.1409497857093811, -0.2057342231273651, -0.007288673892617226,
      -0.06254297494888306, -0.04533674940466881, -0.019316811114549637,
      -0.024907400831580162, -0.09493140876293182, -0.15240517258644104,
      -0.07510252296924591, -0.12813515961170197, 0.015639575198292732,
      -0.030174018815159798, -0.12933677434921265, -0.08218202739953995,
      -0.16124838590621948, -0.19781027734279633, -0.06481592357158661,
      -0.0877511277794838, -0.034803472459316254, 0.02174711786210537,
      -0.31251707673072815, -0.2891469895839691, 0.02503497153520584,
      -0.4722931683063507, -0.4286317229270935, -0.11720799654722214,
      -0.26129087805747986, -0.28541451692581177, 0.005274835973978043,
      0.10890057682991028, 0.013627257198095322, -0.15897201001644135,
      0.09101686626672745, 0.029029686003923416, 0.03969692811369896,
      -0.0030933385714888573, 0.08359969407320023, -0.01904112845659256,
      -0.022949611768126488, 0.033268533647060394, 0.07793179154396057,
      -0.05682147294282913, -0.01860196702182293, -0.010438229888677597,
      0.038641177117824554, -0.05970049649477005, 0.08062220364809036,
      0.07668022811412811, 0.048808589577674866, 0.050675466656684875,
      0.047436319291591644, 0.12934821844100952, 0.16289180517196655,
      0.02712652087211609, -0.07094710320234299, -0.021490035578608513,
      -0.13167068362236023, -0.24549101293087006, -0.15775670111179352,
      -0.13120925426483154, -0.19113169610500336, -0.01851426437497139,
      0.10756602138280869, 0.051062051206827164, 0.23743361234664917,
      -0.19177088141441345, -0.2252562791109085, 0.17419181764125824,
      -0.061958953738212585, -0.2535549998283386, -0.14620459079742432,
      -0.0588858388364315, -0.13777928054332733, -0.04970492795109749,
      0.07465501129627228, 0.19288381934165955, 0.15008291602134705,
      -0.04593988507986069, 0.0053725712932646275, 0.007568265311419964,
      0.15325212478637695, 0.17527370154857635, 0.20375223457813263,
      -0.05191531032323837, -0.060571447014808655, -0.13631759583950043,
      -0.020688997581601143, 0.0018277212511748075, 0.06048477441072464,
      0.12407360970973969, 0.1651722490787506, 0.041285134851932526,
      0.10599250346422195, 0.08193811029195786, 0.03283124789595604,
      0.15976546704769135, 0.054725877940654755, -0.05822545289993286,
      -0.16431255638599396, -0.06655123084783554, -0.19995759427547455,
      0.10575126856565475, 0.00871515367180109, 0.021531233564019203,
      -0.12324932962656021, -0.11478963494300842, -0.0026137270033359528,
      -0.04323497787117958, -0.0638374388217926, -0.11581981927156448,
      -0.4856620728969574, -0.3911644220352173, -0.28686589002609253,
      0.01179203949868679, 0.14012804627418518, 0.17285515367984772,
      0.2379000037908554, 0.3392501473426819, 0.4961585998535156,
      -0.05782744660973549, -0.0740448385477066, 0.0043913680128753185,
      -0.08922434598207474, -0.008768326602876186, -0.00519021600484848,
      -0.0697830393910408, 0.018594928085803986, -0.07916203886270523,
      -0.21285627782344818, -0.11076435446739197, -0.02763858251273632,
      -0.07159581035375595, 0.03721188008785248, 0.0285577904433012,
      0.03838244825601578, -0.01456332579255104, -0.06880515068769455,
      0.10225550830364227, 0.0046737962402403355, -0.12918934226036072,
      -0.0013912670547142625, -0.16249603033065796, -0.25988447666168213,
      0.1407744437456131, 0.08446243405342102, 0.014551940374076366,
      0.2808905839920044, 0.27306026220321655, 0.1299053281545639,
      0.2151511162519455, 0.11448592692613602, 0.06819546967744827,
      0.014443391002714634, -0.022260352969169617, -0.1190260723233223,
      -0.11429037153720856, -0.025673307478427887, -0.05494801327586174,
      -0.1024320125579834, -0.07112794369459152, -0.07558431476354599,
      -0.06994215399026871, -0.04371579363942146, -0.022353552281856537,
      -0.26595449447631836, -0.44939932227134705, -0.3488818109035492,
      -0.2075871229171753, -0.1454785168170929, -0.2163255512714386,
      0.017809906974434853, 0.01624823547899723, 0.04742162674665451,
      0.11482689529657364, 0.07094068825244904, 0.14805017411708832,
      0.1320502758026123, 0.0648464635014534, 0.005464707035571337,
      -0.17978651821613312, -0.1849973201751709, -0.1959165334701538,
      0.22141700983047485, 0.17038506269454956, 0.04595038294792175,
      -0.07692340016365051, 0.044974688440561295, -0.08917274326086044,
      -0.08280936628580093, -0.15435554087162018, -0.17795570194721222,
      0.354857861995697, 0.263752281665802, 0.26062440872192383,
      0.07308828830718994, 0.08918958157300949, -0.012211962603032589,
      -0.2701687514781952, -0.24155251681804657, -0.14479981362819672,
      0.3946530818939209, 0.39723527431488037, 0.3947657346725464,
      0.20448192954063416, 0.31655409932136536, 0.16057813167572021,
      0.24381902813911438, 0.2588202655315399, 0.039947401732206345,
      0.37701937556266785, 0.2903100252151489, 0.04945310577750206,
      -0.037415724247694016, -0.01071300357580185, 0.003308582352474332,
      -0.49552783370018005, -0.5189406871795654, -0.5616297125816345,
      -0.22988057136535645, -0.12745679914951324, -0.17400087416172028,
      -0.04786141961812973, 0.05196940898895264, -0.004255251958966255,
      0.11978964507579803, 0.12477028369903564, 0.15717488527297974,
      -0.08303948491811752, -0.04040587693452835, -0.007413473445922136,
      0.09684156626462936, 0.16971585154533386, 0.07987193018198013,
      -0.03140724077820778, -0.05016529932618141, 0.058082230389118195,
      0.17277342081069946, -0.15867455303668976, -0.11787798255681992,
      -0.049928754568099976, -0.10238483548164368, 0.032223425805568695,
      -0.14760150015354156, -0.07694188505411148, 0.035027388483285904,
      -0.17863193154335022, 0.013190742582082748, 0.049245256930589676,
      0.018628930673003197, 0.1397911012172699, -0.09206020832061768,
      0.040287427604198456, 0.016698477789759636, -0.1431581825017929,
      -0.024077625945210457, 0.0547792874276638, 0.006451688706874847,
      -0.15239839255809784, -0.11868150532245636, -0.14472852647304535,
      -0.15653565526008606, -0.13802142441272736, 0.019105974584817886,
      0.06833057850599289, -0.3175947666168213, -0.24581576883792877,
      -0.11539410799741745, -0.28793999552726746, -0.028094574809074402,
      0.0461747944355011, -0.058191340416669846, 0.19519361853599548,
      -0.5875705480575562, -0.25838586688041687, 0.0969906598329544,
      -0.435660183429718, 0.07697149366140366, 0.1245049238204956,
      -0.07828059047460556, 0.15815842151641846, -0.09835774451494217,
      0.30422520637512207, 0.36618295311927795, 0.2660134434700012,
      0.40564602613449097, 0.2521488070487976, 0.1449340134859085,
      0.23460614681243896, 0.04388291388750076, 0.1358751654624939,
      -0.2099127620458603, 0.14742030203342438, 0.11773821711540222,
      -0.05566299334168434, 0.2360452562570572, 0.13545656204223633,
      0.054579585790634155, 0.23205484449863434, 0.017971854656934738,
      -0.1352715790271759, -0.08761951327323914, 0.08443766832351685,
      -0.2660762667655945, 0.1715758591890335, -0.02335141971707344,
      -0.10064324736595154, 0.10877527296543121, -0.19675441086292267,
      0.28891727328300476, 0.10777810215950012, -0.07037344574928284,
      -0.03483109548687935, -0.2689536213874817, -0.14578548073768616,
      -0.1599527895450592, -0.24096420407295227, 0.06828232854604721,
      -0.1316777765750885, -0.24069154262542725, 0.3592804968357086,
      0.014314509928226471, 0.18976902961730957, 0.16721898317337036,
      0.06318885087966919, 0.061629295349121094, 0.10240744054317474,
      -0.1343047022819519, 0.1522236317396164, 0.11118855327367783,
      0.09576904773712158, 0.19979210197925568, 0.0006581482011824846,
      0.11837800592184067, 0.06257878988981247, -0.09955355525016785,
      -0.11970476806163788, -0.08271165937185287, 0.2843146026134491,
      0.03662445396184921, 0.14207786321640015, 0.11041074991226196,
      -0.0016349249053746462, 0.13576608896255493, -0.027877673506736755,
      0.20325049757957458, -0.11642441153526306, -0.05543281510472298,
      0.40518319606781006, 0.029745440930128098, 0.2719389796257019,
      0.3410014808177948, 0.33595728874206543, 0.21437600255012512,
      0.0012080215383321047, -0.04816478118300438, -0.15925641357898712,
      0.12891176342964172, -0.04305887967348099, -0.11270160228013992,
      0.015558087266981602, -0.31888678669929504, -0.10636819899082184,
      -0.008936461992561817, -0.07708802074193954, -0.08588127791881561,
      -0.19842374324798584, -0.2785089313983917, -0.09527169913053513,
      -0.1390906721353531, -0.1975766122341156, -0.0028835763223469257,
      -0.14737120270729065, -0.3306219279766083, 0.08969473838806152,
      -0.1432872861623764, -0.05964886024594307, 0.11771129816770554,
      -0.03414253890514374, 0.1032424196600914, 0.031735923141241074,
      0.007328025531023741, 0.04366815462708473, -0.11768675595521927,
      0.021943915635347366, -0.014731754548847675, -0.12993665039539337,
      -0.15812237560749054, -0.08881798386573792, -0.10503409057855606,
      -0.025933554396033287, 0.1616232693195343, 0.09221746027469635,
      -0.007347040809690952, 0.04136570915579796, 0.01608801633119583,
      -0.03173966333270073, 0.09206938743591309, 0.18339353799819946,
      0.04391787573695183, 0.00443944800645113, 0.14025482535362244,
      -0.032741349190473557, -0.0002798033819999546, 0.10916628688573837,
      -0.057508435100317, -0.07479212433099747, 0.04483521729707718,
      0.04042462632060051, 0.1498440057039261, 0.03246577829122543,
      0.10884173959493637, 0.16192764043807983, 0.0772588849067688,
      0.05727975815534592, 0.059953898191452026, 0.023921428248286247,
      0.022627487778663635, 0.08823272585868835, -0.05197569727897644,
      0.05994986370205879, 0.09225630015134811, 0.018874753266572952,
      0.003490672679618001, 0.05430203676223755, 0.0897759199142456,
      -0.5370858907699585, -0.5503340363502502, -0.4452672004699707,
      -0.333325058221817, -0.36917299032211304, -0.4097634553909302,
      -0.11915986984968185, -0.20804055035114288, 0.024978354573249817,
      -0.17319172620773315, -0.0604986846446991, -0.023057445883750916,
      -0.2207396924495697, -0.1419239193201065, -0.13877099752426147,
      -0.1532030999660492, -0.10996757447719574, 0.026374345645308495,
      -0.31382250785827637, -0.16055986285209656, -0.12821675837039948,
      -0.30561304092407227, -0.15117400884628296, -0.15936250984668732,
      -0.243207186460495, -0.0834876298904419, 0.02482675015926361,
      0.06687137484550476, 0.051451485604047775, 0.1123131513595581,
      0.03551176190376282, 0.12077812850475311, 0.24101433157920837,
      -0.08412719517946243, -0.12251923978328705, 0.23893339931964874,
      0.12564001977443695, 0.01680358685553074, -0.0396512895822525,
      0.022443901747465134, 0.008206472732126713, 0.05838851258158684,
      -0.1308283656835556, -0.036933597177267075, -0.08345821499824524,
      -0.058984026312828064, 0.13944101333618164, 0.11133914440870285,
      -0.09194129705429077, 0.060287341475486755, 0.1629689633846283,
      0.016020148992538452, 0.10436583310365677, 0.17369310557842255,
      -0.05390673503279686, 0.10972928255796432, 0.026235124096274376,
      0.052191007882356644, 0.02336251176893711, 0.015424791723489761,
      -0.10803021490573883, 0.01610240340232849, -0.015724144876003265,
      -1.0591630935668945, -0.9772672057151794, -0.9236077070236206,
      -0.35902833938598633, -0.5677756667137146, -0.5223995447158813,
      0.1226373240351677, 0.07576516270637512, -0.05634818971157074,
      -0.5163350105285645, -0.4168277680873871, -0.41651225090026855,
      -0.5250619649887085, -0.4563941955566406, -0.5516731142997742,
      -0.5096830725669861, -0.6212382912635803, -0.5309727787971497,
      0.11328478157520294, 0.17078346014022827, 0.11757842451334,
      0.11428046226501465, 0.037417907267808914, 0.23528705537319183,
      0.14074395596981049, 0.06718181818723679, 0.23644989728927612,
      0.10070798546075821, 0.07500279694795609, -0.025543950498104095,
      0.06679437309503555, 0.08876977860927582, 0.08151636272668839,
      -0.06053467094898224, 0.028992705047130585, 0.021281009539961815,
      -0.20776274800300598, -0.17868563532829285, -0.03147732838988304,
      -0.18111439049243927, -0.12226817011833191, -0.03329844772815704,
      -0.07119374722242355, -0.09980633109807968, -0.1170220822095871,
      -0.040763527154922485, 0.007518253289163113, 0.025385618209838867,
      0.1384114772081375, 0.10371514409780502, 0.13472680747509003,
      0.006292838603258133, -0.034323833882808685, 0.03374269977211952,
      -0.024668753147125244, -0.2650700807571411, -0.13683445751667023,
      -0.10766130685806274, -0.3389108180999756, -0.4010024666786194,
      0.004411985166370869, -0.27165454626083374, -0.11969966441392899,
      0.08040457963943481, 0.16510912775993347, 0.14045366644859314,
      0.22930891811847687, 0.3155677914619446, 0.28909948468208313,
      0.12848663330078125, 0.25509536266326904, 0.24359248578548431,
      0.07950975000858307, -0.02456600032746792, -0.045088913291692734,
      0.19796106219291687, 0.06426388770341873, 0.028203366324305534,
      0.13992834091186523, 0.08521590381860733, -0.03527909889817238,
      -0.2976599633693695, -0.5697171092033386, -0.3294840157032013,
      -0.5764650106430054, -0.8662334680557251, -0.44044023752212524,
      -0.23426268994808197, -0.48224112391471863, -0.328080952167511,
      -0.2158033549785614, -0.18580229580402374, -0.17315012216567993,
      -0.1976969987154007, -0.1479584276676178, -0.08097036927938461,
      -0.023052308708429337, -0.12146586179733276, 0.05595868453383446,
      0.14533491432666779, 0.13156142830848694, 0.1261405199766159,
      0.07935556024312973, 0.030312707647681236, 0.08564168214797974,
      0.15914399921894073, 0.17002640664577484, 0.13052979111671448,
      -0.22390028834342957, -0.1676424890756607, -0.11371544748544693,
      -0.2747397720813751, -0.28025469183921814, -0.15441879630088806,
      -0.18089596927165985, -0.29498130083084106, -0.11723586916923523,
      -0.026620421558618546, -0.11252712458372116, -0.07275484502315521,
      -0.1427307426929474, -0.1227666437625885, -0.03735257312655449,
      -0.19109046459197998, -0.11308760195970535, -0.06723570078611374,
      -0.069302037358284, -0.036433085799217224, -0.12316443026065826,
      -0.03732435777783394, -0.09981893002986908, -0.015425627119839191,
      0.021986790001392365, -0.06807427108287811, -0.009973892010748386,
      -0.2118050754070282, -0.16511520743370056, -0.12787146866321564,
      0.03208504244685173, -0.02720407024025917, -0.03364183008670807,
      0.004799749236553907, 0.1270255744457245, 0.20167715847492218,
      0.05070582777261734, -0.08420423418283463, 0.0472572036087513,
      -0.2477884590625763, -0.2189878225326538, -0.07003503292798996,
      -0.06786708533763885, -0.14214161038398743, -0.1575697809457779,
      -0.46179911494255066, -0.43438634276390076, -0.2342488318681717,
      -0.17561830580234528, -0.3927285373210907, -0.30337756872177124,
      0.25010812282562256, 0.16210982203483582, 0.05721545219421387,
      0.250200092792511, 0.30755615234375, 0.25113487243652344,
      0.07975412905216217, 0.1480168104171753, 0.07982075214385986,
      0.08297697454690933, 0.08564160764217377, 0.21925155818462372,
      0.026186654344201088, 0.07705529779195786, 0.038744207471609116,
      -0.027267619967460632, 0.04463807865977287, 0.00443886686116457,
      -0.15250538289546967, -0.06115584447979927, 0.04492742568254471,
      -0.3126567006111145, -0.2448541522026062, -0.2772861421108246,
      -0.13355781137943268, -0.23109585046768188, -0.24247078597545624,
      -0.2635250985622406, -0.1798744648694992, -0.20935964584350586,
      0.08790868520736694, -0.24340401589870453, 0.03458656743168831,
      -0.05634649097919464, -0.17684441804885864, 0.2842540442943573,
      -0.2537083625793457, -0.129252627491951, 0.24568842351436615,
      -0.039862919598817825, -0.014410537667572498, -0.1439424306154251,
      0.016128815710544586, -0.15084442496299744, -0.27657392621040344,
      -0.13363048434257507, -0.28413671255111694, -0.3639048933982849,
      -0.06903921067714691, -0.08957913517951965, 0.18854007124900818,
      -0.1350715309381485, 0.1183004230260849, 0.15582744777202606,
      -0.015378589741885662, 0.21592633426189423, -0.04739803820848465,
      0.12381679564714432, 0.04193038493394852, -0.082365021109581,
      0.14161868393421173, 0.008759100921452045, -0.2879256010055542,
      0.2572987973690033, -0.13062041997909546, -0.23057666420936584,
      -0.008348562754690647, -0.15216712653636932, -0.16061121225357056,
      -0.05587417632341385, -0.1808461993932724, 0.13281160593032837,
      -0.10678340494632721, 0.0882127583026886, 0.28727012872695923,
      0.24915044009685516, -0.02195144258439541, -0.12494751811027527,
      0.15713585913181305, -0.1866462081670761, -0.10923333466053009,
      0.022448766976594925, -0.23620063066482544, 0.2786577343940735,
      0.15285907685756683, 0.0874757394194603, -0.0820205807685852,
      0.07457594573497772, -0.12639307975769043, -0.2123904675245285,
      -0.04124603420495987, -0.22838659584522247, -0.11444323509931564,
      -0.024741709232330322, 0.09904203563928604, 0.22901864349842072,
      0.0473814457654953, 0.20937608182430267, 0.23596657812595367,
      -0.019229382276535034, 0.2886304259300232, 0.0673680454492569,
      0.006371090654283762, -0.023529622703790665, -0.049996599555015564,
      0.1435828059911728, 0.15791593492031097, -0.08890842646360397,
      0.08252464979887009, -0.10904552042484283, -0.3690904378890991,
      0.15272167325019836, -0.11160001158714294, -0.09034766256809235,
      0.024097103625535965, -0.2387811243534088, 0.10258618742227554,
      -0.16642402112483978, -0.2188798040151596, 0.2446933090686798,
      -0.3606937527656555, -0.4998364746570587, -0.3590443730354309,
      -0.4335027039051056, -0.680539071559906, -0.19750122725963593,
      -0.43651190400123596, -0.5220560431480408, 0.0940450131893158,
      -0.3424275517463684, -0.3354702889919281, 0.17105348408222198,
      -0.2240702360868454, 0.06383867561817169, 0.43345776200294495,
      -0.015093590132892132, 0.3337104320526123, 0.3308444023132324,
      -0.051442988216876984, -0.2029028683900833, 0.014875742606818676,
      -0.16213329136371613, -0.16864101588726044, 0.34387215971946716,
      -0.03229845315217972, 0.13976779580116272, 0.2918700575828552,
      0.09933166950941086, 0.15946032106876373, 0.13721801340579987,
      -0.002196966204792261, 0.21539126336574554, 0.12561646103858948,
      0.03169287368655205, 0.09742378443479538, 0.050056230276823044,
      -0.010186986066401005, 0.022551152855157852, -0.034651979804039,
      0.014820144511759281, 0.11486207693815231, -0.0004613865166902542,
      0.11863201856613159, 0.10770581662654877, -0.2840128242969513,
      -0.02882131189107895, -0.018923914059996605, 0.04826987907290459,
      0.00835786759853363, -0.061059512197971344, -0.12679848074913025,
      0.021379102021455765, -0.10510611534118652, -0.12094788253307343,
      -0.0017948109889402986, 0.09311854839324951, 0.05588424205780029,
      0.04083069786429405, 0.16985946893692017, 0.1224144995212555,
      0.0035797934979200363, 0.06476479768753052, 0.020464476197957993,
      -0.33466947078704834, -0.5258854031562805, -0.3775838613510132,
      -0.0803026482462883, -0.30226317048072815, -0.46612095832824707,
      0.4197198450565338, 0.38129711151123047, 0.060975752770900726,
      -0.020745502784848213, 0.056630853563547134, 0.13907302916049957,
      0.08764982223510742, 0.23349355161190033, 0.10846670717000961,
      0.020139548927545547, 0.10878153145313263, 0.1137862429022789,
      -0.016427192836999893, -0.05338972806930542, 0.08297394961118698,
      -0.0977644994854927, -0.05420570448040962, 0.13599011301994324,
      0.07496211677789688, 0.00069520651595667, 0.06470348685979843,
      -0.1606314480304718, -0.44498810172080994, -0.3701166808605194,
      -0.2513715922832489, -0.405460000038147, -0.3514896035194397,
      0.09921835362911224, -0.0631718561053276, -0.15155814588069916,
      0.07817931473255157, -0.038380563259124756, -0.046135883778333664,
      0.10179921984672546, -0.020021401345729828, 0.045595526695251465,
      0.05865957960486412, 0.001976212952286005, 0.1375604271888733,
      -0.05778750404715538, -0.07005076110363007, 0.08833283185958862,
      0.007196065969765186, 0.02738424390554428, 0.04735109582543373,
      0.023928100243210793, -0.10475410521030426, 0.03899257630109787,
      -0.4931241571903229, -0.5759226083755493, -0.5266247391700745,
      -0.4421742856502533, -0.39881548285484314, -0.4046129286289215,
      -0.15176774561405182, -0.09674965590238571, -0.1288864016532898,
      0.07943268120288849, -0.020214101299643517, -0.03833616152405739,
      -0.0493469312787056, 0.06436196714639664, -0.04479299113154411,
      0.02079145424067974, 0.029487309977412224, -0.05246485024690628,
      -0.007495732046663761, -0.028563518077135086, -0.05247368663549423,
      0.0033563454635441303, 0.0068212090991437435, 0.06256861239671707,
      0.014194627292454243, 0.0024266792461276054, 0.05782226845622063,
      -0.10157953947782516, 0.010707174427807331, 0.050072792917490005,
      0.022427808493375778, 0.10896814614534378, 0.1791604608297348,
      0.09225717931985855, 0.10119946300983429, 0.09862194210290909,
      0.0974174216389656, 0.10071345418691635, 0.14907297492027283,
      -0.04042023420333862, -0.02240006998181343, 0.16779671609401703,
      0.07896536588668823, -0.011706152930855751, 0.0936582013964653,
      -0.1462966352701187, -0.13252300024032593, -0.05834110453724861,
      0.05051345005631447, 0.06565774977207184, 0.10770948976278305,
      0.23009784519672394, 0.3388596475124359, 0.16499096155166626,
      0.016514308750629425, -0.06092589348554611, -0.1085730567574501,
      -0.1380419284105301, -0.14341706037521362, -0.1870879828929901,
      -0.08049587905406952, -0.08823011070489883, -0.17544622719287872,
      0.09184187650680542, -0.0064594922587275505, 0.14781904220581055,
      0.06688962876796722, -0.0013211298501119018, 0.0009642750956118107,
      0.03865458816289902, -0.04420359432697296, -0.007893398404121399,
      -0.4971005916595459, -0.36609625816345215, -0.06123225763440132,
      -0.40469926595687866, -0.4293085038661957, -0.3284682631492615,
      -0.3395199477672577, -0.2867569327354431, -0.029911478981375694,
      0.20896053314208984, 0.19853366911411285, 0.05961296334862709,
      0.06442039459943771, 0.03254340589046478, -0.07058841735124588,
      -0.07847055047750473, 0.03068191185593605, -0.028155526146292686,
      -0.5009093880653381, -0.3434154689311981, -0.00885990634560585,
      -0.18911384046077728, -0.11305715888738632, 0.06992632895708084,
      -0.08791742473840714, -0.0791349932551384, 0.05968092754483223,
      -0.10760175436735153, -0.08784749358892441, -0.16138678789138794,
      -0.12131001055240631, -0.11939272284507751, -0.20798765122890472,
      -0.17531947791576385, -0.05368418991565704, -0.10268652439117432,
      -0.30175521969795227, -0.06080746278166771, 0.0929141417145729,
      -0.23421365022659302, 0.020370187237858772, 0.20147649943828583,
      -0.10553928464651108, 0.07594110071659088, 0.20960351824760437,
      -0.15688303112983704, -0.22100254893302917, -0.06650298088788986,
      -0.2572318911552429, -0.23715724050998688, -0.20059669017791748,
      -0.15506725013256073, -0.12723690271377563, -0.09573904424905777,
      0.16608679294586182, 0.22555269300937653, 0.20226778090000153,
      0.17695163190364838, 0.10582801699638367, 0.13566884398460388,
      -0.02999693527817726, -0.039586495608091354, -0.03173143044114113,
      0.0024220130871981382, 0.08409787714481354, 0.13651642203330994,
      -0.07884892076253891, -0.007800339255481958, 0.13647183775901794,
      0.07226869463920593, 0.005069347098469734, 0.11956853419542313,
      -0.21199968457221985, -0.34793728590011597, -0.4261784255504608,
      -0.198073148727417, -0.34519335627555847, -0.4094111919403076,
      0.017265815287828445, -0.10564186424016953, -0.14806269109249115,
      -0.12802091240882874, -0.17228694260120392, 0.05008548125624657,
      -0.23266607522964478, -0.11551157385110855, 0.11958973109722137,
      -0.08209509402513504, 0.019335737451910973, 0.2798636257648468,
      0.2098655253648758, 0.13874489068984985, 0.21063165366649628,
      -0.013794757425785065, 0.04072289913892746, 0.12243804335594177,
      -0.025067824870347977, 0.02579730562865734, -0.020294280722737312,
      0.10832948982715607, 0.18195733428001404, 0.06256580352783203,
      0.03134271502494812, 0.08678238093852997, -0.046577248722314835,
      -0.10851354151964188, -0.04128573462367058, -0.06734876334667206,
      0.07482179999351501, 0.21197105944156647, 0.18042424321174622,
      -0.5811719298362732, -0.3012012243270874, -0.06276854127645493,
      -0.4586070477962494, -0.38394680619239807, -0.20584413409233093,
      0.1507294923067093, 0.05246194079518318, -0.282678484916687,
      0.02474234253168106, -0.2580907642841339, -0.4891865849494934,
      -0.08402355015277863, -0.10438984632492065, -0.23602697253227234,
      -0.041247811168432236, -0.09394916146993637, -0.17869795858860016,
      -0.00409651780501008, 0.0345931313931942, -0.031248264014720917,
      0.05732245370745659, 0.02703450433909893, 0.08048378676176071,
      -0.46466249227523804, -0.05184394121170044, 0.013319768011569977,
      0.03932639956474304, -0.18244071304798126, 0.13391682505607605,
      0.05092956870794296, -0.03151784837245941, 0.06336728483438492,
      0.16313575208187103, 0.03312317654490471, -0.26134347915649414,
      0.2861098349094391, 0.019585423171520233, -0.23697376251220703,
      0.14511634409427643, 0.09617151319980621, -0.00040649535367265344,
      -0.1093483567237854, 0.016182782128453255, 0.18723122775554657,
      -0.0701717883348465, 0.030381470918655396, 0.2041720151901245,
      -0.17345422506332397, 0.05770176276564598, 0.1861044317483902,
      -0.033065445721149445, 0.04021530598402023, 0.07416965067386627,
      -0.11767425388097763, -0.09456335008144379, 0.17116840183734894,
      -0.09250670671463013, -0.09338581562042236, 0.08329667896032333,
      0.16874009370803833, 0.05679803714156151, -0.1308373361825943,
      0.14686529338359833, 0.035758066922426224, -0.05815483629703522,
      0.2911064624786377, 0.09891653060913086, -0.1123259887099266,
      -0.14587104320526123, -0.201100155711174, -0.2562316954135895,
      0.10201524943113327, -0.2608080208301544, -0.372828871011734,
      0.10105320066213608, -0.09473627060651779, -0.26925456523895264,
      -0.21982674300670624, -0.08172748237848282, 0.10401351004838943,
      -0.17276626825332642, 0.048529330641031265, 0.16774049401283264,
      -0.14712201058864594, -0.003386647207662463, -0.03418286517262459,
      -0.04703739657998085, 0.009550508111715317, 0.020043333992362022,
      -0.228629931807518, 0.01463509351015091, 0.03676809370517731,
      -0.2593768835067749, 0.0005685154465027153, 0.14322024583816528,
      -0.33955952525138855, -0.07193665951490402, 0.1121169701218605,
      -0.42074570059776306, -0.21143630146980286, 0.03829636052250862,
      -0.29295074939727783, -0.12070711702108383, 0.04183891415596008,
      0.07574287056922913, 0.2093733847141266, 0.07479541748762131,
      0.19331343472003937, 0.2681266665458679, 0.1174018457531929,
      0.08069448173046112, 0.15078502893447876, 0.15668822824954987,
      0.08257943391799927, -0.06974456459283829, -0.2273218035697937,
      0.05361455678939819, -0.11828352510929108, -0.20727181434631348,
      0.0017612825613468885, -0.11624135822057724, -0.2282317876815796,
      -0.2182956337928772, 0.023947112262248993, 0.1206718310713768,
      -0.35955774784088135, 0.005125212017446756, 0.19795922935009003,
      -0.1597946584224701, -0.13611732423305511, 0.13901391625404358,
      0.11415038257837296, -0.058209434151649475, -0.31377771496772766,
      0.11772211641073227, -0.020193643867969513, -0.19257275760173798,
      -0.011856802739202976, 0.12034571170806885, 0.043966926634311676,
      -0.2253536880016327, -0.09414108842611313, 0.029095595702528954,
      -0.13901765644550323, -0.05139061063528061, -0.20027393102645874,
      -0.059277068823575974, -0.21523189544677734, -0.3131673336029053,
      0.2976627051830292, 0.061843082308769226, -0.21083350479602814,
      0.2710919976234436, 0.3691905736923218, 0.1680321991443634,
      0.07603048533201218, 0.2774015963077545, 0.3377091586589813,
      -0.06548596918582916, 0.13193389773368835, 0.15280486643314362,
      -0.015570137649774551, 0.08256974816322327, 0.07157445698976517,
      0.008934409357607365, 0.033216267824172974, 0.1570717841386795,
      0.16946430504322052, -0.08599459379911423, -0.18694134056568146,
      0.20997069776058197, -0.0221781674772501, -0.10655318200588226,
      0.13203276693820953, 0.05241794511675835, -0.19202196598052979,
      0.026106495410203934, 0.0717092826962471, 0.07204847037792206,
      -0.021098123863339424, 0.10864973813295364, 0.04833860695362091,
      -0.16884693503379822, -0.0012920567533001304, -0.01877739280462265,
      -0.053125929087400436, -0.0015859947307035327, 0.0029672463424503803,
      -0.10247153043746948, -0.07226542383432388, -0.05490310117602348,
      -0.29684337973594666, -0.15361453592777252, -0.21834027767181396,
      -0.32314231991767883, -0.3101043403148651, -0.2742097079753876,
      0.07199321687221527, 0.1531895101070404, 0.22527502477169037,
      0.24271413683891296, 0.407592236995697, 0.4342189133167267,
      0.1348629593849182, 0.1641734540462494, 0.025876950472593307,
      -0.021168963983654976, -0.03920169547200203, 0.003381606424227357,
      -0.08779386430978775, -0.18027806282043457, -0.13867798447608948,
      0.01120712235569954, -0.0694657415151596, -0.09475938975811005,
      0.10043469816446304, -0.1228097528219223, -0.02757922187447548,
      0.02013237401843071, -0.053974002599716187, -0.06590905785560608,
      -0.576924741268158, -0.36157479882240295, -0.17984013259410858,
      -0.2824710011482239, -0.12869210541248322, -0.032140329480171204,
      -0.02097390592098236, 0.15352016687393188, 0.31886982917785645,
      -0.004591765347868204, -0.12703481316566467, 0.051386889070272446,
      0.07315921038389206, 0.12514786422252655, 0.08991799503564835,
      -0.12396219372749329, -0.10907909274101257, -0.05262795090675354,
      -0.05093403533101082, -0.06264087557792664, -0.10247202962636948,
      0.023702438920736313, -0.10059955716133118, -0.07146508246660233,
      0.06345523148775101, 0.17724479734897614, 0.14232924580574036,
      -0.3756287395954132, -0.226254403591156, -0.12029000371694565,
      -0.19654756784439087, -0.056082628667354584, 0.009370652958750725,
      0.12592999637126923, 0.1849662959575653, 0.27453792095184326,
      -0.031045271083712578, 0.01695188693702221, -0.08443780243396759,
      0.07209643721580505, -0.06812569499015808, -0.011292178183794022,
      0.015094371512532234, -0.10187029838562012, -0.09244480729103088,
      -0.05128144472837448, -0.05369076505303383, 0.09394154697656631,
      -0.18968050181865692, -0.06125301867723465, 0.013955093920230865,
      -0.06806100159883499, -0.07218627631664276, -0.07055184990167618,
      0.2881496250629425, 0.28183504939079285, 0.24292999505996704,
      0.1876317262649536, 0.2553788423538208, 0.1924441009759903,
      -0.08195482194423676, 0.0010474860901013017, 0.09009383618831635,
      0.2620914876461029, 0.2819567918777466, 0.3279670476913452,
      -0.10491824895143509, -0.028675025328993797, 0.07000260800123215,
      -0.12748655676841736, -0.030590398237109184, -0.06104474887251854,
      -0.0522083081305027, 0.06339049339294434, 0.09326688200235367,
      0.0415334478020668, -0.0014134361408650875, 0.05370008945465088,
      -0.4580754339694977, -0.14573664963245392, -0.03294186294078827,
      -0.12795262038707733, -0.05710062384605408, -0.060978688299655914,
      -0.08196201920509338, -0.029376255348324776, 0.047455236315727234,
      0.1257394403219223, 0.09174474328756332, 0.118766650557518,
      -0.017189910635352135, -0.016325384378433228, -0.03747949004173279,
      0.02295181155204773, 0.09669730067253113, -0.07540985196828842,
      0.15083356201648712, 0.15781788527965546, -0.02272503264248371,
      -0.08677711337804794, -0.0007967893616296351, -0.004388521891087294,
      0.17780324816703796, 0.05156753212213516, -0.020238887518644333,
      0.12253347784280777, 0.008268401026725769, -0.08422630280256271,
      0.10770418494939804, 0.015294699929654598, -0.07729891687631607,
      -0.03486735001206398, -0.1056266650557518, -0.062490448355674744,
      0.022099530324339867, 0.019992178305983543, 0.10457361489534378,
      0.03667745739221573, 0.07163096219301224, 0.03625797852873802,
      0.13434840738773346, 0.21737563610076904, 0.11003486812114716,
      0.05247084051370621, 0.06988663226366043, 0.12066024541854858,
      -0.09477798640727997, 0.04824172332882881, -0.03264656662940979,
      0.1336822211742401, 0.04149803891777992, 0.11914724856615067,
      0.10376467555761337, 0.05085170641541481, -0.0601494163274765,
      -0.08546996116638184, -0.0511942021548748, -0.05454877018928528,
      0.06943253427743912, -0.13703978061676025, -0.11021231859922409,
      -0.13631635904312134, -0.18976598978042603, -0.08794974535703659,
      0.1292131096124649, 0.13056080043315887, 0.08232507854700089,
      0.18969446420669556, 0.4247908592224121, 0.3613336384296417,
      0.15996529161930084, 0.35995304584503174, 0.3618561923503876,
      0.10751544684171677, 0.008488920517265797, -0.093349888920784,
      0.09755291044712067, -0.012275091372430325, 0.05703708529472351,
      -0.0260984618216753, 0.022422537207603455, 0.08120235055685043,
      -0.21927353739738464, -0.15493564307689667, -0.18794208765029907,
      -0.288659006357193, -0.39955782890319824, -0.24665053188800812,
      -0.3066266179084778, -0.23462457954883575, -0.1328536570072174,
      -0.2605348825454712, -0.11982017755508423, 0.05934766307473183,
      -0.10314949601888657, 0.10070593655109406, 0.0558972992002964,
      -0.10938938707113266, 0.052587512880563736, -0.00039371661841869354,
      0.1539166420698166, 0.08661824464797974, 0.10478109121322632,
      0.21292462944984436, 0.05836459994316101, -0.13605934381484985,
      0.0346246063709259, -0.07800451666116714, -0.14291036128997803,
      -0.011145739816129208, -0.11558836698532104, -0.07917811721563339,
      -0.12144738435745239, -0.10686717182397842, -0.08554285019636154,
      -0.02598736435174942, 0.10628034174442291, 0.1383526474237442,
      0.19426824152469635, 0.34214961528778076, 0.23539891839027405,
      0.13897015154361725, 0.17094287276268005, 0.13850897550582886,
      0.1674223393201828, -0.010529128834605217, 0.026785684749484062,
      -0.012855571694672108, 0.08310110121965408, 0.24038399755954742,
      0.3725847601890564, 0.49225956201553345, 0.4453112483024597,
      0.3105579912662506, 0.34987154603004456, 0.11906704306602478,
      0.05328546091914177, 0.024173835292458534, -0.08155770599842072,
      -0.033027175813913345, -0.03788013756275177, -0.04494965448975563,
      0.029559442773461342, -0.06314998120069504, -0.05326627567410469,
      -0.1266832798719406, -0.08835893124341965, -0.04716838523745537,
      -0.06616143882274628, -0.13006502389907837, 0.01387636549770832,
      -0.16703103482723236, -0.09216759353876114, -0.10597707331180573,
      0.016562560573220253, -0.02289140224456787, -0.10403230041265488,
      0.017419012263417244, 0.057883456349372864, -0.16793674230575562,
      0.034340884536504745, -0.1988757997751236, -0.07114703953266144,
      -0.17005333304405212, -0.23613357543945312, -0.22615689039230347,
      -0.36216938495635986, -0.40256184339523315, -0.27199989557266235,
      -0.05635293945670128, 0.07430193573236465, 0.1831279695034027,
      0.04950445890426636, 0.16440778970718384, 0.06736050546169281,
      -0.08715502172708511, 0.0047411806881427765, 0.049055133014917374,
      -0.21628211438655853, -0.21344532072544098, -0.17889733612537384,
      0.38881808519363403, 0.17978735268115997, 0.1354549527168274,
      0.0883493646979332, -0.16324551403522491, -0.2375531792640686,
      0.03945469111204147, -0.05703826621174812, -0.07459237426519394,
      0.06779979169368744, 0.01682588830590248, -0.1345880776643753,
      -0.06799215823411942, -0.16612914204597473, -0.07161928713321686,
      0.0292692631483078, 0.010583512485027313, -0.044202856719493866,
      -0.09014979749917984, -0.14281997084617615, -0.1797398328781128,
      -0.28388193249702454, -0.1597793996334076, -0.12060263752937317,
      0.05465679243206978, 0.026295170187950134, -0.0822591632604599,
      0.2732882797718048, 0.37262168526649475, 0.281406044960022,
      0.053144242614507675, -0.029479697346687317, -0.15371912717819214,
      -0.008909672498703003, -0.22957898676395416, -0.16600656509399414,
      0.04847832769155502, 0.1621750146150589, 0.18914364278316498,
      0.06748034060001373, 0.04708900675177574, 0.13527916371822357,
      -0.004714524373412132, 0.028660543262958527, -0.034204304218292236,
      -0.021950915455818176, -0.05174920707941055, -0.05922222509980202,
      0.0018636311870068312, 0.1072724387049675, 0.11901488155126572,
      0.17373737692832947, 0.09297461807727814, 0.029219670221209526,
      0.0509725883603096, 0.06286512315273285, -0.06387001276016235,
      -0.125043123960495, -0.22658520936965942, -0.20838017761707306,
      -0.2770939767360687, -0.25795161724090576, -0.22484177350997925,
      0.19152578711509705, 0.03611637279391289, -0.07227957993745804,
      -0.11556282639503479, -0.15468105673789978, 0.013866200111806393,
      0.12372486293315887, 0.3179723620414734, 0.29200395941734314,
      0.09091286361217499, 0.05136200040578842, 0.16662904620170593,
      0.08918803930282593, -0.026588894426822662, -0.046662185341119766,
      -0.16058410704135895, -0.28844189643859863, -0.16770921647548676,
      -0.05377534404397011, 0.07065449655056, 0.014202735386788845,
      0.15816941857337952, 0.06469450145959854, -0.005968238692730665,
      0.1529662311077118, 0.19350697100162506, 0.056895431131124496,
      0.34343379735946655, 0.31976544857025146, -0.017601437866687775,
      0.3926176428794861, 0.32016944885253906, 0.38182181119918823,
      0.2547990679740906, 0.31641995906829834, 0.129000723361969,
      0.04914020001888275, 0.1822182834148407, -0.07884657382965088,
      -0.07647807151079178, -0.002554347738623619, -0.05035978928208351,
      -0.21197640895843506, -0.09237074851989746, -0.14745762944221497,
      0.15676270425319672, 0.02859872207045555, -0.1286790519952774,
      0.09630937874317169, 0.033285919576883316, 0.05857202410697937,
      0.01539639476686716, 0.07205115258693695, 0.015474987216293812,
      0.06559249013662338, -0.14479315280914307, -0.21607625484466553,
      -0.1811579167842865, -0.10364443063735962, -0.04371766746044159,
      0.13342991471290588, 0.1676284819841385, 0.18886978924274445,
      0.22665302455425262, 0.0850529745221138, -0.06660934537649155,
      -0.01802138425409794, -0.06635519862174988, -0.007363184820860624,
      -0.11523424834012985, -0.06766106933355331, -0.04434115067124367,
      0.0021287533454596996, -0.06955952942371368, -0.020044468343257904,
      -0.008482948876917362, -0.07905635237693787, -0.015566067770123482,
      -0.06865491718053818, 0.07200540602207184, 0.021500125527381897,
      -0.13889376819133759, -0.15712104737758636, -0.2478111982345581,
      0.04680774360895157, -0.12788620591163635, -0.17378301918506622,
      -0.0024662029463797808, -0.03489873930811882, -0.1599794626235962,
      -0.12355228513479233, -0.05285985767841339, 0.028947902843356133,
      -0.12703140079975128, -0.12871862947940826, 0.04629897698760033,
      -0.11207577586174011, -0.11255772411823273, 0.05318661779165268,
      -0.11315425485372543, -0.06185814365744591, 0.08066107332706451,
      -0.058290034532547, -0.034061919897794724, 0.17278197407722473,
      -0.17043088376522064, 0.05107814073562622, 0.21657738089561462,
      -0.1260422021150589, -0.04412122070789337, -0.00677219545468688,
      -0.01792961359024048, 0.03696567565202713, 0.008461586199700832,
      -0.03478201478719711, -0.06087227538228035, -0.045340146869421005,
      0.0068228961899876595, -0.027982501313090324, -0.038698215037584305,
      0.020913634449243546, 0.05585009604692459, -0.06471984088420868,
      0.00484055420383811, 0.019881868734955788, -0.0021885852329432964,
      -0.0880509465932846, 0.0931033119559288, 0.13947299122810364,
      0.006834382191300392, 0.10970824956893921, 0.1798485517501831,
      -0.09211334586143494, 0.15495894849300385, 0.11158780008554459,
      0.0656837746500969, 0.11247818917036057, 0.047163449227809906,
      0.1442006528377533, 0.13230425119400024, 0.03369789198040962,
      0.16814719140529633, 0.09406697750091553, 0.08786924183368683,
      0.01069279108196497, -0.09277620166540146, 0.06328727304935455,
      0.07246872782707214, -0.03277153521776199, 0.09938067197799683,
      0.16989144682884216, 0.07115306705236435, 0.27042844891548157,
      -0.040575653314590454, -0.026193834841251373, 0.06504277884960175,
      0.020288068801164627, -0.01795262098312378, -0.019591405987739563,
      -0.0599282868206501, 0.15339235961437225, 0.033612195402383804,
      -0.03804267942905426, -0.14132556319236755, -0.19567638635635376,
      -0.19382815062999725, -0.2826584279537201, -0.29028549790382385,
      -0.2656978666782379, -0.26444873213768005, -0.2799683213233948,
      -0.14511467516422272, -0.14995843172073364, -0.008509458042681217,
      -0.21367964148521423, -0.11157877743244171, -0.20155222713947296,
      -0.2287834733724594, -0.18405717611312866, -0.15678878128528595,
      0.18922159075737, 0.015134410001337528, -0.039049819111824036,
      0.010857533663511276, 0.1885623037815094, 0.06800511479377747,
      0.1745358258485794, 0.12730710208415985, 0.21725855767726898,
      -0.04326669126749039, 0.05876774340867996, 0.08305942267179489,
      0.0762920081615448, 0.11038342863321304, 0.15321360528469086,
      0.045891690999269485, 0.07228433340787888, 0.032379068434238434,
      -0.060284823179244995, -0.13390208780765533, 0.011965770274400711,
      -0.023888152092695236, -0.11942887306213379, -0.08348653465509415,
      0.01979651302099228, -0.01144882570952177, 0.10226798802614212,
      -0.3295983672142029, -0.337988018989563, -0.35647398233413696,
      -0.29011818766593933, -0.27631205320358276, -0.4285060465335846,
      -0.18653225898742676, -0.13555598258972168, -0.3044027090072632,
      0.06033197045326233, -0.0509033165872097, -0.1139601320028305,
      0.08136109262704849, -0.07415976375341415, -0.030156176537275314,
      0.008441850543022156, -0.004573256708681583, -0.02207949012517929,
      -0.3398263454437256, -0.10228324681520462, -0.16796629130840302,
      -0.27292415499687195, -0.17576146125793457, -0.10746117681264877,
      -0.23035860061645508, -0.17057374119758606, -0.11546441912651062,
      -0.4057847559452057, -0.5982463955879211, -0.3858409821987152,
      -0.4167068302631378, -0.4601087272167206, -0.29481175541877747,
      -0.16746288537979126, -0.18827667832374573, -0.251304566860199,
      0.0791468545794487, 0.03274749219417572, 0.18851953744888306,
      0.29817527532577515, 0.13506291806697845, 0.32739660143852234,
      0.2944290339946747, 0.25059974193573, 0.1804380565881729,
      0.04335464537143707, 0.16004779934883118, -0.011444194242358208,
      -0.0008813813328742981, 0.006779463030397892, 0.026146847754716873,
      -0.071635901927948, 0.1392764002084732, 0.16274350881576538,
      0.11533164232969284, 0.08577380329370499, -0.12972815334796906,
      0.07113322615623474, 0.03686975687742233, -0.08856041729450226,
      0.032345838844776154, -0.1445576548576355, -0.027730079367756844,
      -0.07920095324516296, -0.036025404930114746, 0.03771693632006645,
      0.11587931960821152, -0.08902131021022797, 0.022557182237505913,
      0.047300249338150024, -0.11429867148399353, -0.050596386194229126,
      0.06498391926288605, 0.14590927958488464, -0.046279314905405045,
      -0.06250109523534775, 0.1547902226448059, 0.11856204271316528,
      0.054415903985500336, 0.16496911644935608, 0.13940824568271637,
      0.017853083088994026, 0.034534160047769547, 0.10839319974184036,
      0.04441588371992111, -0.13292676210403442, -0.11036449670791626,
      0.111390620470047, -0.028560513630509377, -0.2245272845029831,
      0.05188742280006409, -0.012962615117430687, -0.06316680461168289,
      0.12358466535806656, -0.03878781571984291, 0.05927823856472969,
      0.07678332179784775, -0.0141337551176548, 0.0744636207818985,
      -0.0743994489312172, -0.2635919749736786, -0.1702013462781906,
      -0.11135134100914001, -0.23089201748371124, -0.28826338052749634,
      -0.05848705396056175, -0.20714832842350006, -0.15688349306583405,
      0.2811497747898102, 0.16051147878170013, 0.08360742032527924,
      0.11251514405012131, -0.06611254811286926, -0.10455131530761719,
      0.08312856405973434, 0.08301524817943573, 0.06116437911987305,
      0.12141883373260498, 0.331969678401947, 0.13792091608047485,
      0.19977939128875732, 0.4183259606361389, 0.25367414951324463,
      0.23681554198265076, 0.23001906275749207, 0.32290762662887573,
      0.05381477251648903, -0.060734979808330536, -0.0014888803707435727,
      -0.03631797432899475, 0.0873553454875946, 0.04585312306880951,
      0.09134066849946976, 0.07806727290153503, -0.03995119035243988,
      0.030712680891156197, -0.07284967601299286, 0.10604283213615417,
      0.03936108946800232, -0.12840765714645386, -0.10486398637294769,
      -0.02247736044228077, 0.03411314636468887, -0.25323250889778137,
      -0.13944071531295776, -0.44314995408058167, -0.305248498916626,
      0.07245982438325882, -0.15674374997615814, -0.24886995553970337,
      0.07843521982431412, -0.07838201522827148, -0.033272478729486465,
      0.041394345462322235, 0.0022415639832615852, -0.1653040498495102,
      -0.012322061695158482, -0.17273607850074768, -0.17461015284061432,
      0.007557425647974014, -0.09568632394075394, -0.16094864904880524,
      0.04256569966673851, 0.09908785670995712, 0.04260046035051346,
      -0.056453075259923935, 0.11825571209192276, 0.03439468517899513,
      -0.10466095060110092, -0.020497703924775124, -0.046536099165678024,
      -0.07800811529159546, -0.05209653452038765, -0.045410916209220886,
      0.1140504851937294, -0.06999314576387405, -0.012280558235943317,
      0.0360979288816452, 0.04382955655455589, 0.11075571924448013,
      -0.14067082107067108, -0.027836140245199203, 0.006997399497777224,
      -0.02747468836605549, 0.06277739256620407, 0.13366037607192993,
      0.00974602997303009, 0.15020349621772766, 0.20038841664791107,
      -0.06067311763763428, -0.10174872726202011, 0.0017281565815210342,
      0.03623208403587341, 0.04038960859179497, 0.05822756886482239,
      0.1392691284418106, -0.028530318289995193, -0.031017892062664032,
      -0.04010486975312233, -0.06853626668453217, -0.03410359099507332,
      -0.034395623952150345, -0.06175128370523453, -0.034754522144794464,
      -0.005692328326404095, 0.005330860614776611, -0.09681976586580276,
      0.11806976795196533, 0.04618806764483452, 0.09969483315944672,
      0.01234941091388464, 0.19267888367176056, 0.10071060061454773,
      0.06381495296955109, 0.11261393129825592, 0.10167649388313293,
      0.01944478414952755, 0.06570369750261307, -0.028335019946098328,
      0.015292610973119736, 0.021889330819249153, 0.06615884602069855,
      -0.1002492755651474, -0.06574422866106033, 0.06440208107233047,
      -0.0488005056977272, -0.15075203776359558, -0.03533835709095001,
      -0.07134942710399628, -0.13068395853042603, -0.043165359646081924,
      -0.03999016806483269, 0.05074363201856613, 0.10646791756153107,
      -0.10022777318954468, -0.10650760680437088, -0.07507636398077011,
      -0.07603327929973602, -0.09399259090423584, -0.08782267570495605,
      0.0760735273361206, -0.03270523250102997, -0.16448134183883667,
      0.008594080805778503, -0.08108764886856079, -0.058521121740341187,
      -0.17567120492458344, -0.3094588816165924, -0.15805616974830627,
      -0.12879832088947296, -0.13140709698200226, -0.12480086833238602,
      0.0860971137881279, 0.07633870840072632, 0.15008880198001862,
      0.04459361359477043, 0.13453441858291626, 0.0004558865912258625,
      0.058047231286764145, -0.10771061480045319, -0.07817525416612625,
      0.3036007881164551, 0.2425440102815628, 0.1467113047838211,
      0.23732732236385345, 0.21862533688545227, 0.09751582145690918,
      0.16675348579883575, 0.2638642489910126, 0.11070498824119568,
      0.10177252441644669, 0.13887755572795868, 0.1586819738149643,
      0.08210346847772598, 0.1629895120859146, 0.17189107835292816,
      0.07174883782863617, 0.021248692646622658, 0.04394780471920967,
      0.07218359410762787, 0.07238207012414932, 0.02000356651842594,
      -0.003161107888445258, -0.01867060922086239, -0.05598520487546921,
      -0.0437895804643631, -0.07029232382774353, -0.02505560964345932,
      0.17156822979450226, 0.17575009167194366, 0.029129136353731155,
      0.25467583537101746, 0.14483505487442017, 0.09090934693813324,
      0.2086748331785202, 0.17618146538734436, 0.05133612081408501,
      -0.12084798514842987, -0.05398641899228096, -0.18673057854175568,
      -0.07711496204137802, 0.0533260703086853, -0.08205711841583252,
      -0.05046381056308746, 0.08983530849218369, 0.06176204979419708,
      0.09787473827600479, 0.17418138682842255, 0.17218242585659027,
      0.048379335552453995, -0.05381462350487709, -0.05983584374189377,
      -0.10484132915735245, -0.18459127843379974, -0.31732651591300964,
      0.11005177348852158, 0.05936092883348465, 0.12807197868824005,
      0.11190737783908844, 0.1810600310564041, 0.1477157324552536,
      0.16622212529182434, 0.21916815638542175, 0.053305257111787796,
      0.05041726306080818, 0.14493156969547272, 0.032191794365644455,
      0.15319351851940155, 0.06477032601833344, -0.06535390764474869,
      0.03707558661699295, 0.045269183814525604, -0.03598359599709511,
      -0.06846772879362106, -0.20968881249427795, -0.029372435063123703,
      -0.1650502234697342, -0.07344044744968414, 0.09601783007383347,
      0.012473393231630325, -0.017253240570425987, 0.09443424642086029,
      -0.09361300617456436, -0.3392748534679413, -0.3037407100200653,
      -0.2641831636428833, -0.29518407583236694, -0.13190858066082,
      -0.48334044218063354, -0.28669893741607666, 0.04162876680493355,
      -0.1207524836063385, -0.2592676281929016, -0.2854960262775421,
      -0.32691267132759094, -0.39187729358673096, -0.3348780870437622,
      -0.316259503364563, -0.33578062057495117, -0.2555948793888092,
      -0.1704520583152771, -0.0867883712053299, 0.06749938428401947,
      -0.15631866455078125, -0.2079787254333496, -0.08893244713544846,
      -0.09141059964895248, -0.18545903265476227, -0.10376124083995819,
      0.13720300793647766, 0.07597481459379196, -0.07082358747720718,
      0.11947649717330933, 0.05835448205471039, 0.05620044842362404,
      0.042639847844839096, -0.083988256752491, -0.020407659932971,
      -0.08546938002109528, -0.08252522349357605, 0.0020591900683939457,
      -0.10791584849357605, -0.03887532278895378, 0.007004378829151392,
      0.060656797140836716, 0.05684882402420044, 0.2067343145608902,
      0.08013732731342316, 0.034251198172569275, -0.027768418192863464,
      0.21386677026748657, 0.22100527584552765, 0.04969531297683716,
      0.18962642550468445, 0.20446746051311493, 0.15631252527236938,
      -0.4687563478946686, -0.33603882789611816, -0.18477576971054077,
      -0.43135422468185425, -0.3195624053478241, -0.24080221354961395,
      -0.04428458958864212, -0.05507964640855789, 0.1174793690443039,
      -0.7321392893791199, -0.7044588327407837, -0.41561204195022583,
      -0.5746914148330688, -0.5082471966743469, -0.3664821982383728,
      -0.28816667199134827, -0.2881769835948944, -0.3432331383228302,
      -0.22882011532783508, -0.12221331149339676, 0.01945565827190876,
      -0.26577886939048767, -0.2198115438222885, -0.048385780304670334,
      -0.12530027329921722, -0.14244893193244934, -0.05307776480913162,
      -0.026853840798139572, 0.06588143110275269, 0.0897398367524147,
      -0.017627106979489326, 0.04978877678513527, -0.019171562045812607,
      0.012242911383509636, -0.04412122070789337, -0.09955740720033646,
      -0.08278549462556839, -0.03898816928267479, -0.21701942384243011,
      0.019294647499918938, -0.05619370937347412, -0.2665283977985382,
      0.1166527047753334, -0.11809373646974564, -0.14579512178897858,
      -0.010392998345196247, -0.019115641713142395, -0.07393902540206909,
      -0.008941593579947948, -0.022015022113919258, -0.04762169346213341,
      0.07417596876621246, 0.01084180548787117, 0.10683299601078033,
      -0.1739889532327652, -0.035429976880550385, -0.08750434219837189,
      -0.1499449759721756, -0.04213234782218933, -0.017270434647798538,
      0.002792122308164835, 0.06405609101057053, 0.01236134022474289,
      -0.07415133714675903, -0.11288855224847794, -0.15076026320457458,
      -0.2683088183403015, -0.1632101833820343, -0.18811191618442535,
      -0.2071976214647293, -0.26359105110168457, -0.1347249150276184,
      0.16827884316444397, -0.04329642653465271, -0.12290767580270767,
      0.08562492579221725, 0.058715417981147766, -0.0004731017106678337,
      0.04306840896606445, 0.0964137464761734, 0.07922480255365372,
      0.040135886520147324, -0.042321376502513885, 0.03599195554852486,
      -0.0923781767487526, 0.006518126931041479, 0.01775268092751503,
      0.08859953284263611, 0.05825994908809662, 0.00039616317371837795,
      0.04378780350089073, -0.06906142830848694, 0.022967424243688583,
      0.021188553422689438, 0.11614187806844711, -0.057581495493650436,
      0.07211150228977203, 0.07293003797531128, 0.06299208849668503,
      0.18580639362335205, 0.15180271863937378, 0.07973556965589523,
      0.18537871539592743, 0.20591656863689423, 0.02880735881626606,
      0.14623038470745087, 0.1627206653356552, 0.017824990674853325,
      -0.07408939301967621, 0.056729987263679504, 0.1046103984117508,
      -0.037134554237127304, 0.02224552072584629, 0.17487670481204987,
      -0.06976581364870071, -0.04339279234409332, 0.15793555974960327,
      -0.17553669214248657, -0.17384274303913116, -0.08542469888925552,
      -0.0222014207392931, -0.11878667026758194, -0.005429002456367016,
      0.035759083926677704, -0.030632907524704933, 0.1250743567943573,
      0.07234369218349457, 0.06110529974102974, 0.04437270760536194,
      0.10095243155956268, -0.014989793300628662, 0.041120972484350204,
      0.12913382053375244, 0.09015107154846191, -0.03151686489582062,
      -0.3325560688972473, -0.4439280331134796, -0.2457428127527237,
      -0.0817875936627388, -0.4625774919986725, -0.44667837023735046,
      -0.2849181592464447, -0.5600035786628723, -0.4947298765182495,
      0.14020705223083496, -0.02511386014521122, 0.010751667432487011,
      -0.1629033088684082, -0.48227405548095703, -0.3378516435623169,
      -0.23980067670345306, -0.611238420009613, -0.5067698955535889,
      -0.1822817474603653, -0.08330972492694855, 0.17506828904151917,
      -0.046970266848802567, -0.15615761280059814, 0.20460757613182068,
      0.15730373561382294, -0.136794775724411, 0.14325878024101257,
      -0.003584180725738406, 0.06872622668743134, 0.14667584002017975,
      0.04710579663515091, -0.009835109114646912, 0.04570857435464859,
      -0.043798238039016724, -0.003629282582551241, 0.0991126075387001,
      -0.1790267527103424, 0.06965792179107666, 0.1283099204301834,
      -0.12647992372512817, -0.07969848811626434, 0.181193545460701,
      -0.14502160251140594, -0.010776531882584095, 0.2597978711128235,
      -0.08632819354534149, -0.29228290915489197, -0.24779686331748962,
      -0.058189332485198975, 0.03910358250141144, -0.07498292624950409,
      0.0795079916715622, 0.16053710877895355, 0.052126288414001465,
      0.0727713480591774, 0.001983220688998699, 0.12352809309959412,
      -0.26627302169799805, -0.18454670906066895, -0.05687941238284111,
      -0.2565286159515381, -0.43681082129478455, -0.17809844017028809,
      -0.09824118763208389, -0.07707266509532928, -0.1790556162595749,
      -0.12356162071228027, -0.1466515064239502, -0.09527543932199478,
      0.0006536475848406553, 0.0809456929564476, -0.007594970054924488,
      -0.1347060650587082, -0.0982818454504013, 0.055561620742082596,
      -0.03117077611386776, -0.08211266994476318, 0.010162608698010445,
      0.23294951021671295, 0.11710415035486221, 0.14575153589248657,
      -0.2503519356250763, -0.09860152006149292, -0.25417062640190125,
      -0.15397536754608154, -0.1532343626022339, -0.19447492063045502,
      0.2590175271034241, 0.16739346086978912, 0.037660352885723114,
      -0.23210543394088745, -0.15511217713356018, -0.014495291747152805,
      -0.32623717188835144, -0.34438613057136536, -0.24462482333183289,
      -0.28340956568717957, -0.29475539922714233, -0.20498615503311157,
      0.04108862951397896, 0.07703728973865509, -0.02436695247888565,
      0.012204118072986603, 0.07606083154678345, 0.020158037543296814,
      -0.18112072348594666, -0.10910815745592117, 0.03155038505792618,
      0.17512816190719604, 0.18825900554656982, 0.036043766885995865,
      0.0809173658490181, 0.04558606445789337, -0.005896904040127993,
      0.11357815563678741, 0.15075530111789703, 0.06807737797498703,
      -0.11993008106946945, 0.04081408679485321, -0.028096184134483337,
      -0.1266297996044159, -0.0020005060359835625, 0.11959221959114075,
      -0.05153374373912811, 0.07868394255638123, 0.2228490710258484,
      -0.2727944254875183, -0.34206607937812805, -0.39394059777259827,
      -0.20656263828277588, -0.1555843949317932, -0.09759581089019775,
      0.026444990187883377, 0.07879031449556351, -0.08339591324329376,
      0.11599037051200867, -0.016024861484766006, 0.013479035347700119,
      -0.2290199100971222, -0.17892244458198547, -0.051738590002059937,
      -0.16813670098781586, -0.38950854539871216, -0.17280486226081848,
      0.1013043075799942, -0.005523990374058485, 0.014266259036958218,
      0.1504337042570114, 0.21613141894340515, 0.21054236590862274,
      0.19031064212322235, 0.20490175485610962, 0.08175817877054214,
      -0.10582331568002701, 0.20529983937740326, 0.35361918807029724,
      -0.22071243822574615, -0.39374828338623047, -0.33872106671333313,
      0.0027485881000757217, -0.01933322660624981, 0.07494528591632843,
      0.18178659677505493, 0.04363004490733147, 0.09124723076820374,
      -0.03672236576676369, 0.20549742877483368, 0.35380813479423523,
      0.003672634018585086, 0.12417518347501755, 0.2931961417198181,
      0.1282496154308319, 0.06334760040044785, 0.14799009263515472,
      0.13185812532901764, 0.15226228535175323, 0.12597933411598206,
      0.11574290692806244, 0.19971393048763275, 0.2387205958366394,
