{
    "conv1": {
        "weights": [
            -0.09626715630292892,
            -0.2412959635257721,
            -0.04105363041162491,
            -0.01222326047718525,
            0.05758923292160034,
            -0.29268670082092285,
            -0.27357736229896545,
            -0.32297950983047485,
            -0.07678976655006409,
            -0.11882348358631134,
            -0.14357927441596985,
            0.04384405165910721,
            0.06101542338728905,
            -0.08574767410755157,
            -0.19639775156974792,
            0.00026907172286882997,
            -0.05937165394425392,
            -0.14608721435070038,
            0.12176249176263809,
            0.21884742379188538,
            0.14328671991825104,
            0.2077910304069519,
            0.24098916351795197,
            0.39786866307258606,
            0.1690065711736679,
            0.41104868054389954,
            0.33892306685447693,
            0.046606432646512985,
            0.12507393956184387,
            -0.02225722000002861,
            0.20080327987670898,
            0.1494670808315277,
            0.09501641988754272,
            0.1787707805633545,
            0.3412875235080719,
            -0.019374119117856026,
            0.35483449697494507,
            0.10052534937858582,
            0.15699318051338196,
            0.41501176357269287,
            0.41479960083961487,
            0.07529415190219879,
            0.2951433062553406,
            0.1933823823928833,
            0.3258756995201111,
            0.11145564168691635,
            0.2988515794277191,
            0.18793213367462158,
            0.29414576292037964,
            0.25189343094825745,
            0.3841850459575653,
            -0.02721618302166462,
            0.08871141076087952,
            0.29693588614463806,
            0.1335231065750122,
            0.34287428855895996,
            0.335331529378891,
            0.3488375246524811,
            0.2942236661911011,
            -0.1423889845609665,
            -0.14182889461517334,
            -0.10627695173025131,
            -0.3884582221508026,
            0.10143344849348068,
            0.2980213761329651,
            0.300656795501709,
            0.12456952035427094,
            0.0819188728928566,
            -0.05417752265930176,
            -0.2564466893672943,
            -0.4491969048976898,
            -0.5162103772163391,
            0.13694527745246887,
            0.10302501916885376,
            0.23043635487556458,
            0.26007378101348877,
            -0.08007898926734924,
            -0.04093695059418678,
            0.011045994237065315,
            -0.1566130518913269,
            -0.31185442209243774,
            0.06790012121200562,
            -0.10261564701795578,
            -0.295886754989624,
            0.142261803150177,
            0.03260085731744766,
            -0.20418594777584076,
            0.30863049626350403,
            0.19795933365821838,
            -0.0837695375084877,
            0.058299362659454346,
            0.0432167686522007,
            -0.49468308687210083,
            0.3901105225086212,
            0.14762121438980103,
            -0.09426192939281464,
            0.09728062152862549,
            0.22835375368595123,
            -0.34194889664649963,
            0.10411160439252853,
            0.32154491543769836,
            -0.23666508495807648,
            0.4889344871044159,
            0.4509216248989105,
            0.13578243553638458,
            0.2237243801355362,
            0.04246796295046806,
            -0.14590883255004883,
            -0.22474701702594757,
            -0.310172975063324,
            -0.11675570905208588,
            -0.201224684715271,
            -0.2285630702972412,
            -0.013229244388639927,
            0.3322215676307678,
            0.4332168400287628,
            0.16087116301059723,
            -0.327066034078598,
            -0.16689549386501312,
            -0.28947699069976807,
            -0.28748613595962524,
            0.0649772360920906,
            0.12028764933347702,
            0.3599466383457184,
            0.46144065260887146,
            0.25100910663604736,
            -0.2478981912136078,
            -0.08213242143392563,
            -0.26987966895103455,
            -0.13988113403320312,
            -0.14765183627605438,
            0.21854938566684723,
            -0.004511588718742132,
            0.2546868622303009,
            0.3708587884902954,
            -0.09373237192630768,
            0.06590398401021957,
            -0.1017974242568016,
            0.013107765465974808,
            -0.04098563268780708,
            0.0831369161605835,
            0.028275834396481514,
            -0.04337435960769653,
            -0.02714112028479576,
            0.0033186243381351233,
            0.21678316593170166,
            0.021323971450328827,
            0.2288096845149994,
            -0.06223315745592117,
            0.02418433502316475,
            0.14742912352085114,
            0.0726855993270874,
            0.24755500257015228,
            0.05707361176609993,
            0.1006716936826706,
            -0.22314594686031342,
            0.1304955780506134,
            -0.11412907391786575,
            -0.0837872251868248,
            -0.22236588597297668,
            -0.06280416250228882,
            -0.22785265743732452,
            -0.31924840807914734,
            -0.07638772577047348,
            -0.3559756577014923,
            -0.3180232048034668,
            -0.34755635261535645,
            -0.2868542969226837,
            -0.24273239076137543,
            -0.3355715572834015,
            -0.10579569637775421,
            -0.1793367713689804,
            -0.37488096952438354,
            -0.3377206027507782,
            -0.2521379292011261,
            -0.20747318863868713,
            -0.15572622418403625,
            -0.22123993933200836,
            -0.19882145524024963,
            -0.03574354201555252,
            -0.19584345817565918,
            -0.35108599066734314,
            -0.1586945503950119,
            -0.30303245782852173,
            -0.34187451004981995,
            -0.19850213825702667,
            -0.31225553154945374,
            -0.11954621970653534,
            -0.16700445115566254,
            0.3812286853790283,
            0.40465858578681946,
            0.1144012063741684,
            0.1949121206998825,
            0.2875232398509979,
            0.19924479722976685,
            0.26793116331100464,
            0.14347033202648163,
            0.24975153803825378,
            0.17593275010585785,
            0.23619236052036285,
            -0.15466749668121338,
            0.21346516907215118,
            0.14523793756961823,
            0.09926126897335052,
            0.07291701436042786,
            0.08922233432531357,
            0.04187770187854767,
            -0.2716805934906006,
            -0.2450648844242096,
            -0.21401524543762207,
            -0.1046597883105278,
            -0.17907656729221344,
            -0.10333916544914246,
            -0.11543198674917221,
            -0.06136912852525711,
            -0.028679125010967255,
            -0.11320271342992783,
            0.1849006861448288,
            0.294268399477005,
            -0.2268507480621338,
            -0.07652492821216583,
            0.07433664053678513,
            -0.35323432087898254,
            -0.36964893341064453,
            -0.21026834845542908,
            0.1999732255935669,
            0.24681030213832855,
            0.44436025619506836,
            -0.25127744674682617,
            0.01646539941430092,
            0.30199235677719116,
            -0.402264267206192,
            -0.17962312698364258,
            -0.0949077382683754,
            0.20256327092647552,
            0.2089584767818451,
            0.39799952507019043,
            -0.2559197247028351,
            0.13697054982185364,
            0.2928094267845154,
            -0.231476828455925,
            -0.13889817893505096,
            0.02144085243344307,
            0.05815243348479271,
            -0.14047345519065857,
            -0.25531288981437683,
            -0.18420326709747314,
            -0.1122007668018341,
            -0.24255803227424622,
            -0.0011445051059126854,
            0.023762408643960953,
            -0.051480624824762344,
            0.07831794768571854,
            0.31745991110801697,
            0.25089287757873535,
            0.02195803076028824,
            0.22138679027557373,
            0.36551016569137573,
            0.3642194867134094,
            0.26335608959198,
            0.20219381153583527,
            -0.12681913375854492,
            -0.02859381213784218,
            -0.10494446754455566,
            -0.2101430594921112,
            -0.12525568902492523,
            -0.24100130796432495,
            -0.0651409849524498,
            -0.25882861018180847,
            -0.3326283097267151,
            0.18441055715084076,
            0.25601908564567566,
            -0.340808629989624,
            0.16697315871715546,
            0.04865668714046478,
            -0.2766962945461273,
            0.2624751329421997,
            0.07822657376527786,
            -0.3254210650920868,
            0.1807655543088913,
            -0.14091968536376953,
            -0.18390893936157227,
            0.20216810703277588,
            -0.023382779210805893,
            -0.12389097362756729,
            0.4300054907798767,
            -0.2225421965122223,
            -0.2635374665260315,
            0.14451920986175537,
            0.13028624653816223,
            -0.11599208414554596,
            0.2644031345844269,
            0.1762242168188095,
            -0.37780433893203735,
            0.3218652307987213,
            -0.11585427820682526,
            -0.32076025009155273,
            -0.43008139729499817,
            -0.3864765465259552,
            -0.4850776791572571,
            0.033349428325891495,
            0.20526672899723053,
            -0.17515940964221954,
            0.46648046374320984,
            0.4746405780315399,
            0.2560569643974304,
            -0.14528614282608032,
            -0.3341909348964691,
            -0.13675986230373383,
            0.07254189997911453,
            -0.046172961592674255,
            -0.011877233162522316,
            0.3408423364162445,
            0.16903898119926453,
            0.24553586542606354,
            -0.10402968525886536,
            -0.1494908630847931,
            0.09240614622831345,
            0.09452460706233978,
            0.012853666208684444,
            0.0223647840321064,
            -0.03891351819038391,
            0.01035243272781372,
            -0.012225350365042686,
            0.2871987819671631,
            -0.13776282966136932,
            0.09434470534324646,
            0.21010451018810272,
            -0.006394303869456053,
            0.3046266734600067,
            0.3100139796733856,
            -0.054153356701135635,
            0.18613938987255096,
            -0.24061976373195648,
            -0.03958621248602867,
            -0.10906390845775604,
            -0.1334063857793808,
            -0.3670467436313629,
            -0.010447214357554913,
            0.11756914854049683,
            -0.376377135515213,
            -0.12214284390211105,
            0.09927231073379517,
            -0.16973447799682617,
            0.2037333995103836,
            0.17711378633975983,
            -0.2182629406452179,
            0.13950470089912415,
            -0.136554554104805,
            -0.01729762740433216,
            0.02252562902867794,
            0.32530346512794495,
            0.29804667830467224,
            0.26747727394104004,
            0.30716264247894287,
            0.2392660528421402,
            0.30246615409851074,
            0.2961071729660034,
            0.07856859266757965,
            0.04292023554444313,
            0.16092318296432495,
            0.22876593470573425,
            -0.05890657752752304,
            0.25824007391929626,
            0.24412192404270172,
            0.06965309381484985,
            -0.004285765346139669,
            0.30739712715148926,
            0.2417268455028534,
            -0.13459055125713348,
            -0.029623836278915405,
            0.07697392255067825,
            -0.18592765927314758,
            -0.1203138530254364,
            0.09673673659563065,
            -0.07933839410543442,
            -0.09852536022663116,
            -0.18790066242218018,
            0.29600679874420166,
            0.12092036753892899,
            0.42471325397491455,
            0.28423061966896057,
            0.2207145243883133,
            0.3080688714981079,
            0.04641766846179962,
            0.17854435741901398,
            0.38490962982177734,
            -0.16509109735488892,
            -0.05405278131365776,
            -0.06714875996112823,
            -0.12718920409679413,
            -0.2786468267440796,
            -0.01691490411758423,
            -0.3257873058319092,
            -0.09702256321907043,
            -0.03029479831457138,
            -0.21588270366191864,
            -0.014948766678571701,
            -0.1594596952199936,
            0.014871272258460522,
            -0.19676677882671356,
            -0.2904084324836731,
            -0.10058660805225372,
            -0.30825528502464294,
            -0.2789357304573059,
            0.17631319165229797,
            0.06717799603939056,
            -0.08180951327085495,
            0.3177356421947479,
            -0.14140601456165314,
            -0.0954098105430603,
            0.31527984142303467,
            -0.18540842831134796,
            -0.35454803705215454,
            0.28696805238723755,
            0.06068228930234909,
            -0.02023622766137123,
            0.39610257744789124,
            -0.009842672385275364,
            -0.23167693614959717,
            0.43503883481025696,
            -0.09775859862565994,
            -0.30815574526786804,
            0.06900005787611008,
            -0.0932634025812149,
            -0.19128620624542236,
            0.14673581719398499,
            -0.009003682062029839,
            -0.2963518798351288,
            0.18588946759700775,
            -0.06049349904060364,
            -0.31455129384994507
        ],
        "bias": [
            0.3451019525527954,
            0.03512128069996834,
            -0.13534624874591827,
            -0.07827892154455185,
            -0.0127317626029253,
            0.4050920307636261,
            -0.23916462063789368,
            -0.30150172114372253,
            0.09059670567512512,
            -0.027275459840893745,
            0.0030826262664049864,
            -0.0888194739818573,
            0.057699136435985565,
            0.4395959973335266,
            0.01299634762108326,
            -0.02709384635090828
        ]
    },
    "conv2": {
        "weights": [
            0.09456932544708252,
            0.0722331553697586,
            0.06736597418785095,
            0.16754940152168274,
            0.19771656394004822,
            0.0868321880698204,
            0.0985611081123352,
            0.19296211004257202,
            0.051338788121938705,
            0.010117282159626484,
            0.06528298556804657,
            -0.08056221157312393,
            0.00031906706863082945,
            -0.04382696375250816,
            -0.137353777885437,
            0.06868651509284973,
            0.11629816889762878,
            -0.010251364670693874,
            0.02550523355603218,
            -0.1376912146806717,
            -0.030955087393522263,
            -0.24920523166656494,
            -0.19200414419174194,
            -0.2303561270236969,
            -0.35034066438674927,
            -0.39417144656181335,
            -0.26943010091781616,
            -0.03804837539792061,
            0.03979843109846115,
            -0.12046493589878082,
            -0.01752939075231552,
            -0.07817542552947998,
            0.006906726397573948,
            0.06162749230861664,
            -0.020482612773776054,
            0.10464164614677429,
            -0.437475323677063,
            -0.9218494296073914,
            -0.8896884322166443,
            -0.6740414500236511,
            -0.9051293730735779,
            -0.94730144739151,
            -0.5403617024421692,
            -0.7603321075439453,
            -0.6644130349159241,
            0.21395349502563477,
            0.26742351055145264,
            0.23301002383232117,
            0.1722611039876938,
            0.16055895388126373,
            0.20677529275417328,
            0.19972480833530426,
            0.22375957667827606,
            0.12321478128433228,
            -0.019288036972284317,
            -0.017048755660653114,
            0.023563774302601814,
            -0.00899295974522829,
            0.0519481785595417,
            0.11757856607437134,
            0.044385965913534164,
            -0.03112957254052162,
            -0.046559035778045654,
            -0.030813204124569893,
            -0.020573781803250313,
            -0.08235737681388855,
            0.040516432374715805,
            -0.048478007316589355,
            -0.08376430720090866,
            -0.013684315606951714,
            -0.028522897511720657,
            -0.062318816781044006,
            0.04106014594435692,
            -0.04363787919282913,
            0.0699208453297615,
            -0.12550562620162964,
            -0.09040218591690063,
            -0.07701625674962997,
            -0.1753160059452057,
            -0.183952197432518,
            -0.24452760815620422,
            -0.16235597431659698,
            -0.08036624640226364,
            -0.023763982579112053,
            -0.07033094018697739,
            -0.04107659310102463,
            -0.006444330792874098,
            -0.04019927978515625,
            0.08679723739624023,
            0.04567113146185875,
            0.072306327521801,
            0.12375927716493607,
            0.12652699649333954,
            -0.0882587656378746,
            -0.056579966098070145,
            0.23418156802654266,
            0.00017629715148359537,
            0.02010529302060604,
            0.38285112380981445,
            -0.3651536703109741,
            -0.51935213804245,
            -0.43222740292549133,
            -0.4208981692790985,
            -0.539161741733551,
            -0.3727654814720154,
            -0.4414967894554138,
            -0.5042333602905273,
            -0.4194154739379883,
            -0.006157019641250372,
            0.054618071764707565,
            0.10080158710479736,
            0.09130442142486572,
            0.0176664087921381,
            1.6946358300629072e-05,
            0.05727739632129669,
            -0.030601492151618004,
            0.05885757505893707,
            0.07328139245510101,
            -0.0029256159905344248,
            0.06515248864889145,
            0.02180895023047924,
            0.008036050014197826,
            0.03247842937707901,
            -0.004754785448312759,
            0.1186518743634224,
            -0.027232034131884575,
            0.06607603281736374,
            -0.06625820696353912,
            -0.06416969746351242,
            0.08896573632955551,
            0.06078379973769188,
            0.0342281311750412,
            0.05025232955813408,
            0.08482720702886581,
            -0.10330808162689209,
            -0.08156881481409073,
            0.05806189775466919,
            0.23431695997714996,
            -0.16814011335372925,
            -0.11902280896902084,
            0.19016936421394348,
            0.031349897384643555,
            0.021441513672471046,
            0.2524057924747467,
            0.14262039959430695,
            0.07000036537647247,
            0.14940862357616425,
            0.051072146743535995,
            0.022629136219620705,
            0.19006453454494476,
            0.036414533853530884,
            0.032821331173181534,
            0.0681244507431984,
            0.04790740832686424,
            -0.03094055876135826,
            -0.1083650216460228,
            0.039724200963974,
            0.01059387344866991,
            -0.05343439429998398,
            -0.007322388701140881,
            0.08802752196788788,
            0.02998935803771019,
            -0.11237256973981857,
            0.07569975405931473,
            -0.0767413005232811,
            -0.003277766052633524,
            0.09303697943687439,
            0.049353327602148056,
            0.033464644104242325,
            0.13711683452129364,
            0.10863791406154633,
            0.12765230238437653,
            0.2128671556711197,
            0.0721837654709816,
            0.04201053828001022,
            0.11113057285547256,
            0.05482917279005051,
            -0.10019025206565857,
            0.06159111484885216,
            0.019844772294163704,
            0.15990050137043,
            0.219253808259964,
            0.16186237335205078,
            -0.19060629606246948,
            -0.047629792243242264,
            0.053612641990184784,
            -0.4768187403678894,
            -0.45990586280822754,
            -0.23581428825855255,
            -0.14848189055919647,
            -0.2480347454547882,
            -0.22406058013439178,
            -0.22140328586101532,
            -0.2625402510166168,
            -0.22346478700637817,
            -0.16875296831130981,
            -0.1642463207244873,
            -0.2988649904727936,
            -0.05711803957819939,
            -0.038611140102148056,
            -0.015110466629266739,
            -0.0410715751349926,
            -0.01511259377002716,
            0.012714818120002747,
            0.04193660989403725,
            0.00805815402418375,
            -0.006150228902697563,
            -0.026201166212558746,
            -0.08766254782676697,
            -0.20343290269374847,
            0.1826702058315277,
            0.3039799630641937,
            0.11350072920322418,
            0.11827574670314789,
            0.3431951701641083,
            0.2559492290019989,
            -0.058989230543375015,
            -0.053783316165208817,
            0.1512877494096756,
            -0.19789455831050873,
            -0.06743788719177246,
            -0.023299019783735275,
            -0.030809668824076653,
            0.011838129721581936,
            0.07492645829916,
            0.02244776114821434,
            0.052564505487680435,
            0.10345445573329926,
            0.12797169387340546,
            0.20923776924610138,
            0.2669947147369385,
            0.1220952570438385,
            0.23525016009807587,
            0.23549515008926392,
            0.10608893632888794,
            0.2532545030117035,
            0.1323193907737732,
            -0.275482177734375,
            -0.023441925644874573,
            0.02577780932188034,
            -0.20280320942401886,
            -0.15915724635124207,
            0.08627843111753464,
            0.1832258552312851,
            0.26084986329078674,
            0.2743557393550873,
            -0.007357082795351744,
            0.15642902255058289,
            0.17932912707328796,
            -0.29444149136543274,
            -0.3135247528553009,
            0.05897093191742897,
            0.16846229135990143,
            0.11035899817943573,
            0.0826842337846756,
            0.1795763373374939,
            0.21953009068965912,
            0.1918688863515854,
            0.07407118380069733,
            0.17824456095695496,
            0.1750025898218155,
            -0.04914101958274841,
            -0.0640382319688797,
            -0.2716773450374603,
            0.05942825973033905,
            0.052771709859371185,
            -0.0729028731584549,
            -0.06914188712835312,
            0.02515016682446003,
            0.04566596448421478,
            0.09049031883478165,
            -0.05270817130804062,
            -0.02553599141538143,
            0.24518488347530365,
            0.31847327947616577,
            0.1365719586610794,
            0.2038322389125824,
            0.2367895543575287,
            0.10196851193904877,
            -0.19993478059768677,
            -0.04586037993431091,
            -0.0677199512720108,
            -0.154802605509758,
            -0.18376046419143677,
            -0.06801721453666687,
            -0.14724239706993103,
            -0.11084669828414917,
            0.052207089960575104,
            0.05036574974656105,
            -0.053584612905979156,
            -0.2627798914909363,
            0.0812610313296318,
            0.012802999466657639,
            -0.13200131058692932,
            0.1893845945596695,
            0.10467364639043808,
            -0.04285169392824173,
            -0.0583055354654789,
            -0.07795539498329163,
            -0.04169340431690216,
            0.07457856088876724,
            0.02136324904859066,
            -0.2371406853199005,
            0.2535616159439087,
            0.04888157173991203,
            -0.11090610921382904,
            -0.4844389855861664,
            -0.19391462206840515,
            0.06346872448921204,
            -0.38434770703315735,
            -0.5197405219078064,
            -0.5920164585113525,
            -0.22030067443847656,
            -0.48603129386901855,
            -0.587398111820221,
            0.08976004272699356,
            -0.11716870963573456,
            -0.5424013733863831,
            0.26478785276412964,
            0.1366199404001236,
            -0.12076494842767715,
            0.2524348199367523,
            0.24541650712490082,
            0.117495596408844,
            0.043228231370449066,
            -0.11406063288450241,
            -0.2501504421234131,
            0.167259082198143,
            0.18550482392311096,
            0.1685449182987213,
            -0.16248750686645508,
            -0.03023107722401619,
            0.03850025683641434,
            -0.06041400507092476,
            -0.080068439245224,
            -0.025399910286068916,
            0.030574342235922813,
            0.046334076672792435,
            0.05459475517272949,
            0.0458049476146698,
            0.14707960188388824,
            0.02614699862897396,
            0.09092164039611816,
            0.16958652436733246,
            0.14875510334968567,
            -0.11500630527734756,
            0.010382059961557388,
            0.13589712977409363,
            -0.1782907247543335,
            -0.06675170361995697,
            -0.1349838227033615,
            -0.01036902703344822,
            -0.14024776220321655,
            -0.04554901644587517,
            0.1516457200050354,
            -0.15579961240291595,
            -0.22041845321655273,
            0.13545846939086914,
            0.11775310337543488,
            -0.12397927790880203,
            -0.06974449008703232,
            0.12282209098339081,
            0.34453049302101135,
            -0.15199628472328186,
            -0.06989388167858124,
            0.11206214874982834,
            0.06104419752955437,
            0.03007836453616619,
            0.053338080644607544,
            0.035245560109615326,
            -0.03828294202685356,
            0.011309157125651836,
            -0.1451178938150406,
            -0.1432616114616394,
            -0.078825443983078,
            -0.11763384938240051,
            -0.14452028274536133,
            -0.06346623599529266,
            0.21092984080314636,
            0.35900092124938965,
            -0.2830196022987366,
            0.3144501745700836,
            0.5981797575950623,
            0.2705245614051819,
            0.1503114551305771,
            0.4621891677379608,
            0.3912980258464813,
            0.1386396884918213,
            0.0034218821674585342,
            -0.29793086647987366,
            0.2098150998353958,
            0.31796780228614807,
            0.10094665735960007,
            -0.1118437647819519,
            0.0025091704446822405,
            0.09761428833007812,
            -0.2709125280380249,
            0.21302229166030884,
            0.15124469995498657,
            -0.0951266661286354,
            0.20103703439235687,
            0.22148562967777252,
            -0.11823534220457077,
            0.07332709431648254,
            0.21087731420993805,
            0.014980651438236237,
            -0.10328425467014313,
            -0.0705220103263855,
            0.06947289407253265,
            -0.17503802478313446,
            -0.17271190881729126,
            0.2508048117160797,
            0.016603238880634308,
            -0.025277089327573776,
            -0.2608301043510437,
            -0.20166686177253723,
            0.1511947512626648,
            -0.3285650908946991,
            -0.16796530783176422,
            -0.02659003809094429,
            -0.16766968369483948,
            -0.1405351459980011,
            -0.021456396207213402,
            0.13543568551540375,
            0.1205059140920639,
            -0.29740989208221436,
            0.11329898238182068,
            0.256125807762146,
            0.09615883231163025,
            -0.11303374916315079,
            0.12261535227298737,
            0.2000368982553482,
            0.11078327894210815,
            0.18351560831069946,
            0.22266818583011627,
            -0.05769362673163414,
            0.08961942791938782,
            0.13908445835113525,
            -0.029914995655417442,
            0.05718357115983963,
            0.13929319381713867,
            -0.023624805733561516,
            0.1341935396194458,
            0.08947718888521194,
            -0.08203799277544022,
            0.08468896150588989,
            -0.019594062119722366,
            -0.08301247656345367,
            0.001615825342014432,
            -0.11561640352010727,
            -0.0642211064696312,
            0.013535731472074986,
            0.08280984312295914,
            0.18065328896045685,
            0.3655032813549042,
            0.33061301708221436,
            0.11771055310964584,
            0.13663330674171448,
            -0.09433607757091522,
            -0.06615252047777176,
            -0.07121609896421432,
            0.02263466827571392,
            -0.13997787237167358,
            -0.08739383518695831,
            0.020758913829922676,
            -0.04218440502882004,
            -0.08182261139154434,
            -0.15024299919605255,
            0.13214968144893646,
            0.12714701890945435,
            -0.173237144947052,
            0.21943672001361847,
            -0.0670366957783699,
            -0.20251305401325226,
            -0.2331577092409134,
            -0.5362618565559387,
            -0.3111318051815033,
            0.03870820999145508,
            -0.1342838853597641,
            -0.08605819940567017,
            -0.011528833769261837,
            -0.08095240592956543,
            -0.11007434129714966,
            -0.0057053882628679276,
            0.0006179441115818918,
            -0.06024205684661865,
            0.3174302875995636,
            0.08902072161436081,
            -0.13913317024707794,
            0.1459166407585144,
            -0.007304326165467501,
            -0.21940301358699799,
            0.0763583779335022,
            -0.05386580526828766,
            -0.04754463583230972,
            -0.10745763778686523,
            0.022161807864904404,
            -0.057524483650922775,
            0.0017126873135566711,
            0.1438252031803131,
            0.014006642624735832,
            0.01259536948055029,
            0.051832932978868484,
            0.09229250997304916,
            -0.3476791977882385,
            -0.19708719849586487,
            0.20774655044078827,
            -0.17998434603214264,
            -0.20014050602912903,
            0.05333779379725456,
            -0.42061764001846313,
            -0.37198522686958313,
            -0.3325665295124054,
            -0.15345826745033264,
            -0.262368768453598,
            -0.26381412148475647,
            -0.15525923669338226,
            -0.09499134868383408,
            -0.15204967558383942,
            -0.07640749216079712,
            0.049833450466394424,
            0.018807511776685715,
            0.0035788097884505987,
            -0.13027511537075043,
            0.11974161863327026,
            0.029604272916913033,
            0.1418146789073944,
            0.19625471532344818,
            0.055589981377124786,
            0.3153742849826813,
            0.017256833612918854,
            -0.050859156996011734,
            0.09412050992250443,
            -0.08400776982307434,
            0.23079943656921387,
            0.13034024834632874,
            0.0034539997577667236,
            -0.20603150129318237,
            -0.46280792355537415,
            -0.2915310859680176,
            -0.09447988122701645,
            -0.11443990468978882,
            -0.039567410945892334,
            0.10196463763713837,
            0.23496155440807343,
            0.15408046543598175,
            0.04946746677160263,
            0.19305942952632904,
            0.1096874475479126,
            0.04133433848619461,
            0.014515490271151066,
            0.12344485521316528,
            0.05733012780547142,
            0.11831612139940262,
            -0.026451941579580307,
            0.008870337158441544,
            0.0008873814949765801,
            0.05327404662966728,
            -0.20381435751914978,
            -0.04553762450814247,
            -0.035831861197948456,
            -0.02851046435534954,
            0.05415693297982216,
            0.17439879477024078,
            0.11517810821533203,
            0.2833578288555145,
            0.2759913206100464,
            -0.14378860592842102,
            -0.23466061055660248,
            -0.06759103387594223,
            -0.20349159836769104,
            0.08385340869426727,
            0.06832068413496017,
            -0.045292921364307404,
            0.24710097908973694,
            -0.04199228435754776,
            -0.16867388784885406,
            -0.24452193081378937,
            -0.2118915468454361,
            -0.1974528580904007,
            -0.23206165432929993,
            -0.17036466300487518,
            -0.03593461588025093,
            -0.1587214469909668,
            -0.11081654578447342,
            -0.0337570421397686,
            0.10347791761159897,
            0.03826450556516647,
            -0.06921150535345078,
            0.03291645646095276,
            0.05484483763575554,
            -0.06008250266313553,
            0.08271626383066177,
            -0.012817991897463799,
            -0.04170235991477966,
            0.07996734231710434,
            -0.11920236051082611,
            -0.05180893465876579,
            0.1084027886390686,
            0.04401948302984238,
            0.16507412493228912,
            0.17282706499099731,
            0.21703074872493744,
            -0.19120100140571594,
            0.09866160899400711,
            0.10651179403066635,
            -0.11974161118268967,
            0.12200449407100677,
            0.03293929621577263,
            -0.10655410587787628,
            0.08332749456167221,
            -0.013506523333489895,
            0.19510948657989502,
            0.12927693128585815,
            0.18215428292751312,
            0.203905388712883,
            0.0012748846784234047,
            -0.17714789509773254,
            0.08164097368717194,
            -0.09366200864315033,
            -0.3931984007358551,
            -0.12382209300994873,
            0.020479723811149597,
            -0.022963978350162506,
            -0.050967711955308914,
            -0.01730349287390709,
            0.16553202271461487,
            -0.012127443216741085,
            0.041315510869026184,
            0.032961223274469376,
            0.2656525671482086,
            -0.013044627383351326,
            0.05179633945226669,
            0.20228254795074463,
            -0.1294879913330078,
            -0.1641658991575241,
            0.0814705416560173,
            -0.08419052511453629,
            0.11773943901062012,
            -0.12633423507213593,
            0.06943713873624802,
            -0.07233498990535736,
            -0.008230317384004593,
            0.028155427426099777,
            0.0942811593413353,
            -0.03885648772120476,
            -0.03950301185250282,
            0.024807626381516457,
            -0.33399325609207153,
            -0.16158846020698547,
            -0.2319801300764084,
            -0.22708401083946228,
            -0.049659568816423416,
            -0.06865815073251724,
            -0.0016121495282277465,
            0.1543523669242859,
            0.040551748126745224,
            -0.8069853782653809,
            -0.7665713429450989,
            -0.6180872917175293,
            -0.642141580581665,
            -0.5656898617744446,
            -0.5154076218605042,
            -0.5330265164375305,
            -0.43080079555511475,
            -0.2650831341743469,
            -0.4488691985607147,
            0.08657268434762955,
            0.26232391595840454,
            -0.45008617639541626,
            0.14342647790908813,
            0.3753160536289215,
            -0.32399943470954895,
            0.19809886813163757,
            0.38187098503112793,
            0.05659060925245285,
            0.19505494832992554,
            0.14489959180355072,
            0.017827561125159264,
            0.003812521230429411,
            -0.014760421589016914,
            -0.09156446903944016,
            -0.15680035948753357,
            -0.1977994292974472,
            0.13335786759853363,
            -0.06652852892875671,
            0.0055260201916098595,
            -0.05471310764551163,
            -0.19679436087608337,
            -0.14378006756305695,
            -0.1439312845468521,
            -0.18140947818756104,
            -0.18609710037708282,
            -0.06322656571865082,
            0.13181309401988983,
            0.05473479628562927,
            0.09502297639846802,
            0.08970467001199722,
            0.10192044824361801,
            0.03136615455150604,
            0.11452988535165787,
            -0.0017532799392938614,
            0.12877829372882843,
            -0.1504611223936081,
            -0.2029280811548233,
            0.01694267988204956,
            -0.17236213386058807,
            -0.16219951212406158,
            0.07707816362380981,
            -0.09649953246116638,
            -0.061817724257707596,
            -0.5108776688575745,
            -0.1644786149263382,
            0.10837037861347198,
            -0.5687306523323059,
            -0.07282454520463943,
            0.21292747557163239,
            -0.3878791630268097,
            0.1983087956905365,
            0.2979072630405426,
            -0.158427432179451,
            -0.18275323510169983,
            0.074936643242836,
            -0.24504435062408447,
            -0.1606200784444809,
            0.013401161879301071,
            -0.0814189612865448,
            0.01762624830007553,
            0.14503996074199677,
            -0.16237391531467438,
            -0.168382465839386,
            0.04898324981331825,
            -0.17812691628932953,
            -0.14868900179862976,
            -0.09806924313306808,
            -0.10512369871139526,
            -0.08676908910274506,
            -0.12063060700893402,
            -0.10981430858373642,
            -0.06560664623975754,
            -0.15796217322349548,
            -0.2538323700428009,
            -0.13383649289608002,
            -0.02477159909904003,
            -0.3320227861404419,
            -0.15677230060100555,
            0.13734674453735352,
            -0.2629097104072571,
            -0.13136957585811615,
            0.02535281889140606,
            -0.38120460510253906,
            -0.2753235697746277,
            -0.04360566660761833,
            -0.11727183312177658,
            -0.08041373640298843,
            0.09388244897127151,
            -0.1808435022830963,
            -0.15306752920150757,
            -0.0016819603042677045,
            0.015922026708722115,
            -0.015387111343443394,
            0.20386473834514618,
            0.09884021431207657,
            0.02212519384920597,
            0.19828596711158752,
            0.11843588203191757,
            0.07249507308006287,
            0.007034908514469862,
            0.15974587202072144,
            0.10596161335706711,
            0.11344891786575317,
            0.16817142069339752,
            0.11445008218288422,
            0.10983513295650482,
            0.18129590153694153,
            -0.013171965256333351,
            -0.15513938665390015,
            0.2353947013616562,
            0.12725737690925598,
            -0.21604053676128387,
            0.21546012163162231,
            0.019879745319485664,
            -0.21802526712417603,
            -0.0147203728556633,
            0.05858956277370453,
            0.07158701121807098,
            -0.101725272834301,
            0.07256424427032471,
            0.030409246683120728,
            -0.07948745787143707,
            -0.05687373876571655,
            -0.027929019182920456,
            0.1719609498977661,
            0.06777141988277435,
            0.15484528243541718,
            0.06829634308815002,
            -0.020762568339705467,
            0.22264820337295532,
            -0.005838832352310419,
            0.055263012647628784,
            0.25280120968818665,
            0.11466836929321289,
            -0.06445010006427765,
            -0.28689777851104736,
            0.11254490911960602,
            0.01862672157585621,
            -0.19472961127758026,
            0.07395371049642563,
            -0.07045283913612366,
            -0.23174917697906494,
            -0.4691888689994812,
            -0.716732919216156,
            -0.34514424204826355,
            -0.6088937520980835,
            -0.9769733548164368,
            -0.4613323211669922,
            -0.3243499994277954,
            -0.5123506188392639,
            -0.15040206909179688,
            -0.2951316833496094,
            -0.2287195920944214,
            -0.11821870505809784,
            -0.15290795266628265,
            -0.17077842354774475,
            0.08365228772163391,
            -0.026184413582086563,
            -0.10165750980377197,
            0.07404942065477371,
            0.11911635100841522,
            -0.04161740094423294,
            -0.043178293853998184,
            0.02723827213048935,
            -0.045722704380750656,
            -0.0844557136297226,
            0.09838638454675674,
            0.0013163767289370298,
            -0.08958513289690018,
            0.12303506582975388,
            0.06028328463435173,
            0.21240319311618805,
            0.08303740620613098,
            0.17134253680706024,
            0.1225297749042511,
            0.005551055073738098,
            0.13537123799324036,
            0.13048584759235382,
            0.08856996893882751,
            -0.013585028238594532,
            -0.13434916734695435,
            0.1350446492433548,
            -0.04737304896116257,
            -0.07441812753677368,
            0.008616008795797825,
            -0.11189842969179153,
            -0.1483117789030075,
            -0.19226615130901337,
            -0.3240201473236084,
            -0.4024733603000641,
            -0.33127108216285706,
            -0.4580666422843933,
            -0.34462469816207886,
            -0.12564682960510254,
            -0.24116362631320953,
            -0.26019319891929626,
            -0.22201138734817505,
            -0.3292990028858185,
            -0.1840789020061493,
            -0.11391674727201462,
            -0.40077072381973267,
            -0.20481951534748077,
            0.09033090621232986,
            -0.12341316789388657,
            -0.012458119541406631,
            0.034591689705848694,
            -0.03708789497613907,
            -0.02668224275112152,
            0.09208840131759644,
            -0.0658344253897667,
            -0.2466987818479538,
            0.031346093863248825,
            0.03724922239780426,
            -0.3145022690296173,
            0.09975928068161011,
            0.13410064578056335,
            -0.01990393176674843,
            -0.08358009904623032,
            -0.06239389255642891,
            -0.08289211988449097,
            -0.041609618812799454,
            -0.007225613575428724,
            -0.12307986617088318,
            0.04025325924158096,
            -0.07833515107631683,
            -0.13963890075683594,
            0.06704671680927277,
            -0.01985866390168667,
            -0.2381841242313385,
            0.08593642711639404,
            0.029294617474079132,
            -0.03894549608230591,
            0.034565288573503494,
            -0.2689252495765686,
            -0.08355111628770828,
            -0.02938847430050373,
            -0.08137945085763931,
            -0.11902271956205368,
            0.03633121773600578,
            0.051647450774908066,
            0.02272646315395832,
            -0.05589542165398598,
            -0.10724272578954697,
            -0.018429890275001526,
            0.011781107634305954,
            0.00800778903067112,
            -0.12066320329904556,
            0.12179002910852432,
            0.14188730716705322,
            0.002101978287100792,
            0.03894960507750511,
            0.03007892146706581,
            -0.056467704474925995,
            0.02363169752061367,
            -0.018542034551501274,
            0.07230436056852341,
            0.08124411106109619,
            0.07193336635828018,
            0.08458823710680008,
            -0.06769885867834091,
            0.1338929682970047,
            0.10950777679681778,
            0.026130300015211105,
            0.0501660592854023,
            -0.08565080165863037,
            0.04267947003245354,
            0.09908855706453323,
            -0.13408365845680237,
            -0.05498058721423149,
            -0.00919348280876875,
            0.1415119469165802,
            -0.14413155615329742,
            -0.2457287609577179,
            0.11862848699092865,
            -0.05609053000807762,
            -0.100758396089077,
            0.15303544700145721,
            -0.5062509179115295,
            -0.7299129366874695,
            -0.589988112449646,
            -0.4700354337692261,
            -0.6497061252593994,
            -0.6543062925338745,
            -0.3017519414424896,
            -0.3102111518383026,
            -0.3712938725948334,
            0.2828911244869232,
            0.19745281338691711,
            0.1317874640226364,
            0.22086705267429352,
            0.08798763900995255,
            0.1858557164669037,
            0.12609820067882538,
            0.25566965341567993,
            0.3854990303516388,
            0.06907179951667786,
            -0.08433068543672562,
            -0.06984687596559525,
            -0.057616814970970154,
            -0.13078683614730835,
            -0.10928718000650406,
            -0.040396884083747864,
            -0.043907713145017624,
            -0.03956395015120506,
            -0.058755628764629364,
            0.16828197240829468,
            0.14062578976154327,
            -0.16222114861011505,
            0.1281307339668274,
            0.27319079637527466,
            -0.3801001310348511,
            -0.14007632434368134,
            -0.0017073441995307803,
            -0.08113475143909454,
            0.007158451713621616,
            0.14952899515628815,
            0.07273603230714798,
            0.1726638227701187,
            0.051536738872528076,
            0.07787701487541199,
            0.12884296476840973,
            0.12532640993595123,
            -0.013887950219213963,
            0.1672598272562027,
            0.12859545648097992,
            -0.039206426590681076,
            0.11664602160453796,
            0.21171610057353973,
            -0.07864396274089813,
            -0.10155107080936432,
            0.06929709762334824,
            0.10273493081331253,
            -0.11825969070196152,
            -0.08801278471946716,
            0.008551106788218021,
            0.012858727015554905,
            0.02248140424489975,
            0.007787684909999371,
            0.13202068209648132,
            0.1888946294784546,
            0.14938655495643616,
            0.14438508450984955,
            0.044351726770401,
            0.14862442016601562,
            0.12429934740066528,
            0.028925755992531776,
            0.08314169943332672,
            -0.037930164486169815,
            -0.0827377662062645,
            -0.016818657517433167,
            -0.012019910849630833,
            0.05695243924856186,
            0.10015129297971725,
            0.08864055573940277,
            0.010594626888632774,
            -0.09816375374794006,
            -0.03746915981173515,
            0.016034916043281555,
            -0.05216062441468239,
            -0.08967144787311554,
            0.1054832860827446,
            -0.06008453294634819,
            -0.05510762333869934,
            -0.0630597472190857,
            0.11400607228279114,
            0.19178305566310883,
            0.1893053948879242,
            0.00396528048440814,
            0.10571403801441193,
            0.04172447696328163,
            0.06425613164901733,
            0.02398914471268654,
            -0.11758773773908615,
            -0.02349613420665264,
            -0.01236666738986969,
            -0.15396665036678314,
            0.09826131165027618,
            -0.14035512506961823,
            0.009955385699868202,
            -0.11199058592319489,
            -0.14869259297847748,
            -0.02534550055861473,
            -0.03396391123533249,
            -0.10131439566612244,
            -0.1716146618127823,
            0.16174477338790894,
            0.13800334930419922,
            0.12233677506446838,
            0.21011801064014435,
            0.22327594459056854,
            0.08798489719629288,
            0.2324843406677246,
            0.27101367712020874,
            0.10733460634946823,
            0.1769956797361374,
            0.12782153487205505,
            0.014963568188250065,
            -0.04708180949091911,
            -0.020980900153517723,
            0.012321827933192253,
            -0.10885626077651978,
            0.1358042061328888,
            -0.024547608569264412,
            -0.04064902290701866,
            -0.09872759133577347,
            -0.058661025017499924,
            -0.06081598997116089,
            -0.10236804187297821,
            -0.02695639058947563,
            -0.10475058108568192,
            -0.09867598861455917,
            -0.03910845145583153,
            -0.09117815643548965,
            -0.06988154351711273,
            -0.06179118901491165,
            -0.07366891205310822,
            -0.15042917430400848,
            0.009255937300622463,
            -0.10643652081489563,
            -0.03589033707976341,
            0.1506614238023758,
            -0.18855257332324982,
            -0.2619609534740448,
            -0.2807137668132782,
            -0.3247026801109314,
            -0.39909493923187256,
            -0.48502039909362793,
            -0.07406976073980331,
            -0.13202859461307526,
            -0.3100321888923645,
            -0.10077957808971405,
            -0.10843010246753693,
            -0.27540814876556396,
            -0.02796744741499424,
            -0.2696509063243866,
            -0.4911037087440491,
            0.038820985704660416,
            -0.1170935407280922,
            -0.33225706219673157,
            0.11366870254278183,
            0.03228068724274635,
            -0.00010735768591985106,
            -0.014941522851586342,
            0.010152556002140045,
            -0.016196098178625107,
            -0.11215896904468536,
            -0.1140688881278038,
            -0.12443925440311432,
            -0.04586448520421982,
            0.00988992303609848,
            0.10934021323919296,
            -0.1775515228509903,
            -0.09099330753087997,
            0.0428461916744709,
            -0.22607095539569855,
            -0.14195199310779572,
            0.1118394136428833,
            0.017462728545069695,
            0.041269972920417786,
            0.01711687631905079,
            0.027987737208604813,
            0.09183738380670547,
            0.08675330877304077,
            0.0432196706533432,
            -0.010782831348478794,
            0.08601848036050797,
            -0.34590253233909607,
            -0.16219346225261688,
            0.06480281054973602,
            -0.5209645628929138,
            -0.2628341317176819,
            -0.03435984253883362,
            -0.5638320446014404,
            -0.3548252284526825,
            -0.057792212814092636,
            -0.06106113642454147,
            -0.22905585169792175,
            -0.33038416504859924,
            0.010746961459517479,
            -0.2624538242816925,
            -0.4516485631465912,
            -0.041924621909856796,
            -0.054146695882081985,
            -0.1962399035692215,
            -0.05302765965461731,
            0.05224601924419403,
            0.047393396496772766,
            -0.08588108420372009,
            0.07003935426473618,
            0.17518958449363708,
            -0.1947919726371765,
            0.08559344708919525,
            0.12136330455541611,
            -0.20928671956062317,
            -0.03357570245862007,
            0.19473493099212646,
            -0.21208888292312622,
            0.04876428842544556,
            0.2383604645729065,
            -0.19529689848423004,
            -0.007899841293692589,
            0.15530304610729218,
            -0.024729277938604355,
            -0.13624680042266846,
            -0.06733112037181854,
            -0.21821048855781555,
            -0.0009217067272402346,
            0.1189822107553482,
            -0.21369974315166473,
            -0.030709348618984222,
            0.18006502091884613,
            -0.258086234331131,
            -0.12591806054115295,
            0.13330242037773132,
            -0.36289599537849426,
            -0.18501608073711395,
            0.20699401199817657,
            -0.23792606592178345,
            -0.03251470997929573,
            0.10922519117593765,
            -0.13385750353336334,
            0.23540502786636353,
            0.32440921664237976,
            0.12160730361938477,
            0.15303216874599457,
            0.061965249478816986,
            0.34555667638778687,
            -0.025438454002141953,
            -0.2943876385688782,
            0.05249906703829765,
            -0.013330193236470222,
            0.01912454329431057,
            -0.12876847386360168,
            -0.17624078691005707,
            -0.06183527410030365,
            0.009321962483227253,
            -0.1203426867723465,
            0.06641682237386703,
            0.1939511001110077,
            -0.05173049867153168,
            -0.1234881728887558,
            0.24340595304965973,
            0.005998529028147459,
            -0.29925161600112915,
            0.12267638742923737,
            -0.011267461813986301,
            -0.13604718446731567,
            -0.030361028388142586,
            0.03475232794880867,
            0.06312938034534454,
            -0.051480576395988464,
            -0.024021320044994354,
            0.0021842606365680695,
            -0.05490230396389961,
            0.03865231201052666,
            0.032299697399139404,
            0.0189609844237566,
            0.11471517384052277,
            0.1805489957332611,
            0.006925102788954973,
            0.22750915586948395,
            0.35323038697242737,
            -0.20327360928058624,
            0.00425026286393404,
            0.23437198996543884,
            0.18173152208328247,
            -0.13853409886360168,
            -0.2817193865776062,
            0.0913885161280632,
            -0.11237076669931412,
            -0.19661803543567657,
            0.21932761371135712,
            0.11788418889045715,
            -0.020834336057305336,
            -0.2798106074333191,
            -0.3926428556442261,
            0.006511936895549297,
            -0.35775214433670044,
            -0.4163302779197693,
            -0.048203255981206894,
            -0.11002630740404129,
            0.0005708441021852195,
            -0.03830571472644806,
            -0.285491019487381,
            0.11613903194665909,
            0.25987720489501953,
            -0.1761491447687149,
            0.016384363174438477,
            -0.021584531292319298,
            0.06998677551746368,
            -0.13765817880630493,
            -0.25312691926956177,
            0.21074053645133972,
            0.021939920261502266,
            -0.2464933842420578,
            0.11359509080648422,
            -0.09767668694257736,
            -0.20460650324821472,
            0.1782141774892807,
            -0.010288268327713013,
            -0.02781824581325054,
            -0.13229838013648987,
            0.07310491800308228,
            0.03186129406094551,
            -0.17336027324199677,
            0.05657043680548668,
            0.13889557123184204,
            -0.09328290820121765,
            -0.002399737946689129,
            0.1318982094526291,
            0.31995269656181335,
            0.0142135014757514,
            -0.05536346882581711,
            0.23947128653526306,
            -0.00486686872318387,
            -0.1789935827255249,
            0.16848857700824738,
            -0.047695424407720566,
            -0.11667528003454208,
            -0.21189412474632263,
            -0.34367069602012634,
            -0.06610145419836044,
            -0.2833913564682007,
            -0.4127762019634247,
            -0.1056365966796875,
            0.031889721751213074,
            -0.061863284558057785,
            -0.1215660572052002,
            -0.06033735349774361,
            0.04079437628388405,
            0.01991378888487816,
            -0.048831455409526825,
            -0.06559646874666214,
            -0.02037186361849308,
            -0.1554519385099411,
            -0.15829239785671234,
            -0.17692801356315613,
            0.08962314575910568,
            0.09784446656703949,
            -0.18062300980091095,
            0.07013599574565887,
            0.07312183827161789,
            -0.040408555418252945,
            -0.1447102129459381,
            -0.051165949553251266,
            -0.13174903392791748,
            -0.14297479391098022,
            0.08216723799705505,
            -0.08653385192155838,
            0.3553026020526886,
            0.3550885021686554,
            0.08936899155378342,
            0.1013621836900711,
            0.20907312631607056,
            0.06994691491127014,
            -0.08417569100856781,
            0.16500845551490784,
            0.06194838881492615,
            -0.0016254156362265348,
            -0.009458624757826328,
            -0.059387318789958954,
            -0.2600632607936859,
            -0.08711479604244232,
            -0.2280413955450058,
            0.1814439743757248,
            0.268944650888443,
            0.23584994673728943,
            0.0822066217660904,
            0.13824495673179626,
            0.11363827437162399,
            0.46091780066490173,
            0.3825405240058899,
            0.40312477946281433,
            -0.10148558020591736,
            -0.06328756362199783,
            -0.11476190388202667,
            -0.025119544938206673,
            -0.13557574152946472,
            -0.14928153157234192,
            -0.09948419034481049,
            -0.13634799420833588,
            -0.17314207553863525,
            -0.22933658957481384,
            -0.14041128754615784,
            -0.1588304489850998,
            -0.07652261108160019,
            0.03950490057468414,
            0.005512107163667679,
            0.15118557214736938,
            0.20595847070217133,
            0.21075956523418427,
            0.1989421844482422,
            0.2558233439922333,
            -0.019579347223043442,
            0.2564484179019928,
            0.17705659568309784,
            0.14293628931045532,
            -0.021148748695850372,
            -0.1516386717557907,
            -0.260001540184021,
            -0.051005441695451736,
            -0.24759843945503235,
            -0.16544613242149353,
            0.29811304807662964,
            0.15726304054260254,
            0.0237276628613472,
            0.11376630514860153,
            0.04083452373743057,
            -0.019857514649629593,
            0.11129892617464066,
            0.13945965468883514,
            0.0855848640203476,
            -0.07764784246683121,
            -0.1353118121623993,
            -0.20544610917568207,
            0.04464486241340637,
            0.042010948061943054,
            -0.0638113021850586,
            -0.33433982729911804,
            0.014332808554172516,
            0.0212665107101202,
            -0.2324090451002121,
            -0.13253803551197052,
            -0.2134445607662201,
            -0.23501120507717133,
            -0.12969492375850677,
            -0.3819262981414795,
            0.29844367504119873,
            0.2817295789718628,
            0.15468056499958038,
            0.174774631857872,
            0.05124712735414505,
            -0.08050651848316193,
            0.20070713758468628,
            0.1554218977689743,
            0.09478563070297241,
            -0.09507658332586288,
            0.06861940026283264,
            0.1823081076145172,
            -0.04374425485730171,
            0.032115839421749115,
            0.1278860867023468,
            -0.05014488473534584,
            -0.012660887092351913,
            -0.13071925938129425,
            0.06871747225522995,
            0.048390526324510574,
            -0.09317398071289062,
            0.15977950394153595,
            0.1210213229060173,
            -0.0668930634856224,
            -0.1604667454957962,
            -0.17211858928203583,
            -0.274332731962204,
            0.06745661050081253,
            0.1940055936574936,
            0.1474234163761139,
            -0.04093773290514946,
            0.061925340443849564,
            0.10398224741220474,
            -0.012420757673680782,
            -0.10807878524065018,
            -0.10277756303548813,
            -0.16317591071128845,
            0.15835115313529968,
            0.1271103173494339,
            -0.11463530361652374,
            0.05153687670826912,
            0.0101240873336792,
            -0.18006950616836548,
            -0.13692407310009003,
            -0.15491104125976562,
            0.07566606253385544,
            -0.048704829066991806,
            0.07362809777259827,
            0.013625098392367363,
            0.03152194246649742,
            0.06155793368816376,
            0.1567634642124176,
            0.07223397493362427,
            0.035307809710502625,
            -0.14410269260406494,
            -0.05651329085230827,
            0.10346174240112305,
            -0.26017022132873535,
            -0.33274996280670166,
            -0.08169742673635483,
            0.20401139557361603,
            -0.2818436026573181,
            -0.19700667262077332,
            0.09308196604251862,
            -0.08724302053451538,
            -0.10317649692296982,
            -0.2717485725879669,
            -0.1468081772327423,
            0.005009517073631287,
            -0.15780684351921082,
            -0.2731097340583801,
            -0.038798339664936066,
            -0.22279758751392365,
            -0.03745580092072487,
            0.22209005057811737,
            0.0019829038064926863,
            -0.3985569477081299,
            -0.08594680577516556,
            0.45772674679756165,
            -0.06700105220079422,
            0.029316624626517296,
            -0.4637185037136078,
            -0.6106980443000793,
            -0.19751986861228943,
            0.2398189902305603,
            -0.022329628467559814,
            0.05027256906032562,
            0.1549442708492279,
            0.31002604961395264,
            0.15558090806007385,
            -0.16431967914104462,
            -0.16683292388916016,
            -0.13784998655319214,
            -0.13304637372493744,
            -0.13442645967006683,
            -0.21632134914398193,
            0.06912906467914581,
            -0.07433070987462997,
            -0.058117590844631195,
            -0.0764499381184578,
            -0.01158053707331419,
            -0.08123695850372314,
            0.058037929236888885,
            0.1562606245279312,
            -0.060689736157655716,
            0.0429256446659565,
            0.019756769761443138,
            0.04397018626332283,
            0.12289201468229294,
            0.2881529629230499,
            0.38345426321029663,
            -0.03991561755537987,
            0.03071184828877449,
            0.17366759479045868,
            0.04385523870587349,
            -0.22204962372779846,
            -0.14954109489917755,
            0.3112396001815796,
            0.2068178653717041,
            0.0958792194724083,
            0.056376419961452484,
            0.44914519786834717,
            0.4981190264225006,
            0.056349486112594604,
            0.35963499546051025,
            0.49283140897750854,
            -0.12985999882221222,
            -0.30501866340637207,
            -0.21302637457847595,
            -0.1734163761138916,
            -0.2655729353427887,
            -0.37500137090682983,
            -0.09316159039735794,
            -0.2183859646320343,
            -0.08296246081590652,
            -0.0501001700758934,
            0.10704675316810608,
            0.3779595196247101,
            0.2724769115447998,
            0.173791766166687,
            0.2028917372226715,
            0.30181291699409485,
            0.3108954429626465,
            0.37568920850753784,
            -0.40578362345695496,
            -0.44415104389190674,
            0.07063977420330048,
            0.40648770332336426,
            -0.027943551540374756,
            -0.12189476937055588,
            0.2652539908885956,
            0.23899124562740326,
            0.038513246923685074,
            0.1264292597770691,
            0.24244745075702667,
            0.1888047307729721,
            0.027157828211784363,
            0.15631403028964996,
            0.10113108903169632,
            -0.011615557596087456,
            0.11438338458538055,
            -0.015681453049182892,
            0.15958842635154724,
            0.23884740471839905,
            0.225552037358284,
            -0.18324004113674164,
            -0.031047901138663292,
            0.21442826092243195,
            -0.10736682265996933,
            -0.40571779012680054,
            -0.18548592925071716,
            0.13664914667606354,
            0.10062618553638458,
            0.06585332006216049,
            -0.12898950278759003,
            -0.09847484529018402,
            -0.0502680204808712,
            -0.05778353661298752,
            -0.16047482192516327,
            -0.10440091788768768,
            0.10803115367889404,
            -0.020350847393274307,
            0.23120050132274628,
            0.04049483314156532,
            -0.10303347557783127,
            0.14386655390262604,
            0.07363249361515045,
            0.08457832783460617,
            0.06208846718072891,
            -0.0006301932153292,
            0.06384747475385666,
            0.0317031666636467,
            -0.0694974958896637,
            0.09295567125082016,
            0.033183660358190536,
            -0.14099900424480438,
            -0.09339912980794907,
            -0.20726639032363892,
            0.06269773840904236,
            0.045680731534957886,
            0.09876827150583267,
            -0.0618220753967762,
            -0.06496147066354752,
            0.08297044783830643,
            0.024419285356998444,
            0.059717632830142975,
            -0.004649144131690264,
            -0.09129302948713303,
            -0.12350006401538849,
            0.022785743698477745,
            -0.318089097738266,
            -0.2399081140756607,
            -0.09148113429546356,
            -0.02735401876270771,
            -0.11302664875984192,
            -0.01708083041012287,
            -0.03958330303430557,
            -0.062172215431928635,
            -0.10315900295972824,
            0.00397746404632926,
            -0.06526267528533936,
            -0.04634381830692291,
            0.045134853571653366,
            0.017368733882904053,
            -0.049438685178756714,
            0.027148442342877388,
            -0.0904136672616005,
            -0.07711736112833023,
            0.17127171158790588,
            -0.01321544498205185,
            0.12481697648763657,
            -0.0017318957252427936,
            0.12526117265224457,
            0.05546707287430763,
            0.20201490819454193,
            0.22009970247745514,
            0.18149839341640472,
            0.1700451523065567,
            0.24895554780960083,
            0.18887722492218018,
            0.0952363908290863,
            0.20975181460380554,
            0.23820921778678894,
            -0.13859225809574127,
            -0.026872942224144936,
            -0.12246821820735931,
            -0.013277977705001831,
            0.04226422682404518,
            0.10906989127397537,
            -0.02892921306192875,
            0.04924025386571884,
            0.0956040620803833,
            -0.006223446689546108,
            0.05159218981862068,
            0.07006029039621353,
            0.02969474345445633,
            -0.11106154322624207,
            -0.05668805539608002,
            0.11958061158657074,
            0.12161102890968323,
            0.0034883928019553423,
            0.019803320989012718,
            0.026679396629333496,
            0.19195562601089478,
            0.016884585842490196,
            0.07764255255460739,
            0.0813661441206932,
            0.01927759125828743,
            0.015012378804385662,
            -0.07107003033161163,
            0.20888346433639526,
            0.27945128083229065,
            0.03682873398065567,
            0.19141560792922974,
            0.3205591142177582,
            0.23073656857013702,
            0.3204679489135742,
            0.4080456495285034,
            0.3713377118110657,
            -0.5847786068916321,
            -0.7467676997184753,
            -0.4080583453178406,
            -0.37818261981010437,
            -0.6593934297561646,
            -0.4312211871147156,
            -0.2633267939090729,
            -0.49095073342323303,
            -0.22201290726661682,
            0.06552301347255707,
            -0.025193480774760246,
            -0.10312791913747787,
            0.47475317120552063,
            0.18396811187267303,
            0.21176651120185852,
            0.38870808482170105,
            0.35001829266548157,
            0.2551853656768799,
            -0.43764564394950867,
            -0.49981164932250977,
            -0.3694829046726227,
            -0.10432947427034378,
            -0.375166118144989,
            -0.24273785948753357,
            0.2659139037132263,
            0.03873366862535477,
            0.06576721370220184,
            0.08259868621826172,
            0.03826559707522392,
            -0.004656272009015083,
            -0.14791268110275269,
            -0.014372525736689568,
            -0.10918445140123367,
            9.928314830176532e-05,
            0.025477860122919083,
            0.04191986471414566,
            -0.16310827434062958,
            -0.25882968306541443,
            -0.06450662016868591,
            -0.12049652636051178,
            -0.3201518952846527,
            -0.18188892304897308,
            0.37544530630111694,
            0.20657144486904144,
            0.3358381688594818,
            -0.325947642326355,
            -0.189766064286232,
            0.01967499405145645,
            -0.4036017954349518,
            -0.4418333172798157,
            -0.19310088455677032,
            -0.18398544192314148,
            -0.14902983605861664,
            0.012552749365568161,
            0.07612970471382141,
            0.23888152837753296,
            0.15464916825294495,
            0.2058352679014206,
            0.26987722516059875,
            0.1787904053926468,
            0.13352523744106293,
            0.255177766084671,
            0.15474361181259155,
            0.07676815241575241,
            -0.012083820067346096,
            -0.08960776776075363,
            0.07575084269046783,
            0.10222131013870239,
            0.042297039180994034,
            0.032715633511543274,
            0.10953430831432343,
            0.02701324224472046,
            -0.10594392567873001,
            0.019726110622286797,
            -0.12092886865139008,
            0.020956166088581085,
            -0.021270744502544403,
            -0.0006902962923049927,
            -0.02890774980187416,
            0.037996064871549606,
            0.16054919362068176,
            0.05038384720683098,
            0.14549314975738525,
            0.11617837101221085,
            0.053386200219392776,
            0.09038085490465164,
            0.03578220680356026,
            -0.0024678290355950594,
            0.10529552400112152,
            0.03327617794275284,
            -0.541706919670105,
            -0.6897467970848083,
            -0.4813542664051056,
            -0.4357456564903259,
            -0.5757877230644226,
            -0.511600136756897,
            -0.5260042548179626,
            -0.59649658203125,
            -0.5805380344390869,
            -0.04864253103733063,
            0.012765046209096909,
            0.005483326036483049,
            -0.05758356675505638,
            -0.02426261641085148,
            -0.013269362971186638,
            -0.15398798882961273,
            -0.10710946470499039,
            0.029630938544869423,
            -0.04833540692925453,
            -0.043503887951374054,
            -0.06576985865831375,
            0.05158105865120888,
            -0.07580038160085678,
            0.044656507670879364,
            0.005639317911118269,
            -0.09433060884475708,
            0.02714499831199646,
            -0.06707091629505157,
            0.02842739410698414,
            0.08741523325443268,
            -0.0021432777866721153,
            0.03392175957560539,
            0.03394405171275139,
            0.046479158103466034,
            -0.002376335905864835,
            0.07308635860681534,
            -0.02822001650929451,
            -0.03978249430656433,
            -0.1789492964744568,
            0.15499484539031982,
            0.18341064453125,
            -0.060617536306381226,
            0.11502761393785477,
            0.20660534501075745,
            0.08278746902942657,
            -0.17847996950149536,
            -0.007124262861907482,
            0.12337998300790787,
            -0.1965114176273346,
            -0.200607568025589,
            -0.06167072057723999,
            -0.018340079113841057,
            -0.1095796748995781,
            -0.05216840282082558,
            -0.6100361943244934,
            -0.27309322357177734,
            -0.16002708673477173,
            -0.5127567052841187,
            -0.39816731214523315,
            -0.23634889721870422,
            -0.48106512427330017,
            -0.2537866234779358,
            -0.14007912576198578,
            -0.28343236446380615,
            -0.42517539858818054,
            -0.2873208224773407,
            -0.19826722145080566,
            -0.2740791440010071,
            -0.30911150574684143,
            -0.05514388531446457,
            -0.3255908489227295,
            -0.3627679944038391,
            0.06554239243268967,
            0.004933839663863182,
            -0.05410293862223625,
            0.053535766899585724,
            -0.027006162330508232,
            -0.2063513994216919,
            0.04163546860218048,
            -0.12195566296577454,
            -0.31262776255607605,
            0.06405624747276306,
            -0.011178637854754925,
            -0.07568132877349854,
            -0.04117152839899063,
            -0.009476350620388985,
            0.07580684125423431,
            0.04651038721203804,
            -0.08076567202806473,
            0.04634493589401245,
            -0.07019872218370438,
            0.11271073669195175,
            0.2302844524383545,
            0.12044505029916763,
            0.07513602077960968,
            0.031227625906467438,
            0.1202198937535286,
            0.0030075067188590765,
            -0.0892283096909523,
            -0.5680186748504639,
            -0.2702324092388153,
            -0.1690165400505066,
            -0.5767065286636353,
            -0.39518383145332336,
            -0.18016944825649261,
            -0.40742939710617065,
            -0.2619631588459015,
            -0.046962011605501175,
            -0.1455191969871521,
            -0.3290146291255951,
            -0.4994339942932129,
            -0.050674162805080414,
            -0.2999342381954193,
            -0.4153777062892914,
            -0.15988391637802124,
            -0.21035397052764893,
            -0.4300086498260498,
            -0.14604505896568298,
            0.033101215958595276,
            0.07677551358938217,
            -0.2676474452018738,
            0.14585720002651215,
            -0.026652833446860313,
            -0.4396481513977051,
            -0.13333187997341156,
            -0.2111586481332779,
            -0.13716712594032288,
            -0.16767556965351105,
            -0.19383986294269562,
            -0.17053942382335663,
            -0.3187350034713745,
            -0.2065364122390747,
            -0.23660685122013092,
            -0.18823891878128052,
            0.027787471190094948,
            -0.30444398522377014,
            -0.024708598852157593,
            -0.1082010567188263,
            -0.3179660141468048,
            -0.13265638053417206,
            -0.06790732592344284,
            -0.34393757581710815,
            -0.07866702973842621,
            -0.003165564965456724,
            -0.05080726370215416,
            -0.15140405297279358,
            -0.09391632676124573,
            -0.012402975931763649,
            -0.11296785622835159,
            -0.09426584839820862,
            0.027670221403241158,
            0.0742398127913475,
            0.006376413628458977,
            -0.036745548248291016,
            0.006664970889687538,
            0.027672763913869858,
            -0.09583452343940735,
            0.014348453842103481,
            0.03195337951183319,
            -0.10224130004644394,
            -0.10967473685741425,
            -0.0823737382888794,
            0.06241808831691742,
            0.00695002032443881,
            -0.02493763342499733,
            0.12127543985843658,
            0.11638767272233963,
            0.06827787309885025,
            0.13006696105003357,
            0.11681511998176575,
            -0.10919760912656784,
            0.011709497310221195,
            0.028208570554852486,
            0.14353135228157043,
            -0.042322371155023575,
            0.017050685361027718,
            0.0586487241089344,
            0.02660105936229229,
            -0.06404715031385422,
            0.11084884405136108,
            0.19660881161689758,
            -0.04327336698770523,
            -0.31048041582107544,
            0.12548689544200897,
            0.020068708807229996,
            -0.2810382843017578,
            -0.03552079573273659,
            -0.0172586590051651,
            -0.1294364631175995,
            -0.013512956909835339,
            -0.12188093364238739,
            -0.05919637158513069,
            -0.03245500475168228,
            -0.237763911485672,
            -0.13884484767913818,
            -0.17333984375,
            -0.18675346672534943,
            -0.1709931492805481,
            0.03790292888879776,
            0.01883874647319317,
            0.15445442497730255,
            0.07283899933099747,
            0.14912958443164825,
            0.23666499555110931,
            0.14553028345108032,
            0.21446873247623444,
            0.26737380027770996,
            0.027470311149954796,
            -0.16174359619617462,
            -0.07997060567140579,
            -0.08485109359025955,
            -0.27083954215049744,
            -0.22322125732898712,
            -0.13632576167583466,
            -0.1547948718070984,
            -0.15295210480690002,
            -0.19970963895320892,
            -0.13173308968544006,
            -0.19817931950092316,
            -0.10906971991062164,
            -0.14073103666305542,
            -0.14011360704898834,
            -0.17021219432353973,
            -0.09474680572748184,
            -0.10049866884946823,
            0.01303861290216446,
            0.12561726570129395,
            0.16591623425483704,
            -0.03184334561228752,
            0.03494621813297272,
            0.11203563213348389,
            -0.008389213122427464,
            0.11823300272226334,
            0.1333724558353424,
            0.04591263830661774,
            0.1962045431137085,
            0.13228850066661835,
            0.12405520677566528,
            0.05016208067536354,
            0.06885895133018494,
            -0.030487362295389175,
            0.07161563634872437,
            0.011348419822752476,
            0.18039095401763916,
            0.2013244777917862,
            0.1462957113981247,
            0.2382303774356842,
            0.1775778830051422,
            0.08675027638673782,
            0.1855112761259079,
            0.1054953783750534,
            0.235237717628479,
            -0.29465827345848083,
            -0.3409265875816345,
            -0.2823598384857178,
            -0.33874425292015076,
            -0.29528895020484924,
            -0.3077174425125122,
            -0.26517337560653687,
            -0.2709958255290985,
            -0.23262223601341248,
            -0.03258669376373291,
            -0.10447239130735397,
            0.06662263721227646,
            0.07889741659164429,
            0.0261048823595047,
            -0.07739207148551941,
            0.15010453760623932,
            0.09155455231666565,
            0.13641072809696198,
            0.11502348631620407,
            0.06563472002744675,
            0.02043958380818367,
            -0.018000314012169838,
            -0.017061568796634674,
            0.06655532121658325,
            -0.057002387940883636,
            -0.049254611134529114,
            -0.09527537971735,
            -0.05216123163700104,
            -0.13027732074260712,
            0.02992415428161621,
            -0.06483648717403412,
            -0.13434645533561707,
            0.037224411964416504,
            -0.046717047691345215,
            -0.0006888062343932688,
            0.07269342988729477,
            0.03456484526395798,
            0.03797264024615288,
            0.1562689244747162,
            0.01786297746002674,
            -0.023186203092336655,
            0.10960199683904648,
            -0.056233566254377365,
            -0.007219638209789991,
            0.14494194090366364,
            0.1287451684474945,
            0.06815015524625778,
            0.07164987176656723,
            0.14668044447898865,
            0.17340803146362305,
            0.11223094910383224,
            0.1499217301607132,
            0.15914945304393768,
            0.1762351244688034,
            -0.03833504021167755,
            -0.013519789092242718,
            -0.08080548793077469,
            -0.02958615869283676,
            0.07940191775560379,
            -0.05691803991794586,
            -0.027013257145881653,
            0.05859997868537903,
            0.05624482408165932,
            -0.1190725788474083,
            -0.35690516233444214,
            -0.3044457733631134,
            -0.1465200036764145,
            -0.33235421776771545,
            -0.2437448799610138,
            -0.07639803737401962,
            -0.22769774496555328,
            -0.26643213629722595,
            0.12007950991392136,
            0.07239364832639694,
            0.11861854046583176,
            -0.09643125534057617,
            -0.05594578757882118,
            0.17208904027938843,
            -0.13238555192947388,
            -0.2433728575706482,
            0.08910497277975082,
            0.20405425131320953,
            0.22211775183677673,
            -0.016282860189676285,
            0.20614869892597198,
            0.2779049575328827,
            0.20149298012256622,
            0.1468665897846222,
            0.09039332717657089,
            0.062340520322322845,
            -0.015778865665197372,
            -0.0543716698884964,
            0.11610635370016098,
            -0.021976152434945107,
            0.05705726891756058,
            0.18473511934280396,
            0.013692880049347878,
            0.18684691190719604,
            0.2717129588127136,
            0.11628912389278412,
            0.007458442356437445,
            -0.060496605932712555,
            -0.04226943477988243,
            -0.07995525002479553,
            -0.19310389459133148,
            -0.11354249715805054,
            -0.046708568930625916,
            -0.09590214490890503,
            0.07021074742078781,
            0.011455954052507877,
            -0.06394840031862259,
            -0.05829606205224991,
            -0.011938272975385189,
            0.0554998479783535,
            -0.0022868167143315077,
            -0.02999449335038662,
            -0.02346886694431305,
            0.03839770331978798,
            -0.03309980407357216,
            -0.006419049110263586,
            -0.013290006667375565,
            -0.0970061644911766,
            0.057045482099056244,
            0.0677582323551178,
            -0.1098857894539833,
            -0.02560901828110218,
            0.11266462504863739,
            -0.005671054590493441,
            -0.06294625997543335,
            -0.03953902795910835,
            0.08081614971160889,
            0.07435892522335052,
            -0.008507794700562954,
            -0.11246176064014435,
            -0.13715878129005432,
            0.049822848290205,
            0.053137216717004776,
            0.03273564949631691,
            0.1248631477355957,
            0.18631821870803833,
            0.1959872841835022,
            0.1039925068616867,
            0.2032710313796997,
            0.17703089118003845,
            -0.14378803968429565,
            -0.06963380426168442,
            -0.05838503688573837,
            -0.06160727143287659,
            -0.034550197422504425,
            -0.10135947912931442,
            -0.28820133209228516,
            -0.27871042490005493,
            -0.24552150070667267,
            -0.02122627943754196,
            0.12827399373054504,
            0.10942459106445312,
            0.07464870810508728,
            0.05986376479268074,
            0.057959165424108505,
            -0.005527575965970755,
            -0.06383797526359558,
            0.05453027784824371,
            -0.007563326507806778,
            0.19716112315654755,
            0.1471196711063385,
            -0.0870237648487091,
            0.05801190435886383,
            0.05347055196762085,
            -0.031961966305971146,
            0.04688097909092903,
            -0.09619145095348358,
            0.012439997866749763,
            0.12316437065601349,
            0.03525744006037712,
            -0.004450682550668716,
            0.15861888229846954,
            0.09674600511789322,
            -0.058055076748132706,
            0.01426305714994669,
            -0.08003193885087967,
            0.3956023156642914,
            0.4280436038970947,
            0.42463424801826477,
            0.25329485535621643,
            0.2564852833747864,
            0.21739977598190308,
            0.14889143407344818,
            -0.05060986056923866,
            -0.003837961470708251,
            0.056791674345731735,
            -0.006786227226257324,
            -0.02825092524290085,
            0.01886497065424919,
            -0.04783506691455841,
            -0.04077852889895439,
            0.11440000683069229,
            -0.005088257137686014,
            0.036799412220716476,
            0.028169451281428337,
            0.06429629772901535,
            0.10490051656961441,
            -0.06353432685136795,
            -0.0684400200843811,
            0.021412210538983345,
            0.1620628833770752,
            0.20185025036334991,
            0.10405468195676804,
            -0.2437889128923416,
            -0.05276118591427803,
            0.010362149216234684,
            -0.06648678332567215,
            -0.10716373473405838,
            -0.026618871837854385,
            -0.021558649837970734,
            -0.0953846350312233,
            -0.004585097543895245,
            0.19670870900154114,
            0.0844925120472908,
            -0.037390805780887604,
            0.11326040327548981,
            0.21349212527275085,
            0.1517520397901535,
            -0.1524505913257599,
            -0.00756658473983407,
            -0.02476011961698532,
            -0.13065122067928314,
            -0.2861938774585724,
            -0.37988293170928955,
            -0.2284086048603058,
            -0.377206027507782,
            -0.40486669540405273,
            0.07658355683088303,
            0.007489804644137621,
            -0.05080845579504967,
            0.018140258267521858,
            0.02468419261276722,
            0.03383046016097069,
            0.04198706895112991,
            0.1561499983072281,
            0.06498619168996811,
            0.2188270390033722,
            0.17715203762054443,
            0.005595520604401827,
            0.13314540684223175,
            0.21415969729423523,
            0.0967877060174942,
            0.11322890967130661,
            0.07889032363891602,
            0.060033731162548065,
            0.019822701811790466,
            -0.15088066458702087,
            -0.023812072351574898,
            -0.26839956641197205,
            -0.2562803626060486,
            -0.28358760476112366,
            -0.262821763753891,
            -0.24979819357395172,
            -0.25229573249816895,
            -0.09674696624279022,
            -0.1954459398984909,
            -0.2951129376888275,
            -0.07995733618736267,
            -0.09296320378780365,
            -0.06208791583776474,
            -0.045873478055000305,
            0.0567011758685112,
            0.06651946157217026,
            -0.015371742658317089,
            -0.0059061795473098755,
            0.04313239827752113,
            -0.3362365663051605,
            -0.34866517782211304,
            -0.1940709352493286,
            -0.4332793653011322,
            -0.496406227350235,
            -0.4899739623069763,
            -0.08986136317253113,
            -0.25007200241088867,
            -0.2720009386539459,
            -0.046993743628263474,
            0.05219373479485512,
            -0.01891087368130684,
            0.025784824043512344,
            0.08677134662866592,
            0.019152559340000153,
            0.10882335156202316,
            0.09401513636112213,
            0.06329826265573502,
            -0.06192481890320778,
            0.1358199417591095,
            0.11344608664512634,
            -0.052114516496658325,
            -0.01751807890832424,
            0.07741687446832657,
            -0.08720924705266953,
            0.0286314245313406,
            -0.018324779346585274,
            -0.514244794845581,
            -0.6485649943351746,
            -0.6155269145965576,
            -0.334585577249527,
            -0.654070258140564,
            -0.7408936023712158,
            -0.03820190578699112,
            -0.39329400658607483,
            -0.5664249062538147,
            -0.20882946252822876,
            -0.049056489020586014,
            -0.0692836120724678,
            0.04504042863845825,
            -0.09525620937347412,
            -0.37127161026000977,
            0.19472934305667877,
            0.031096888706088066,
            -0.24506354331970215,
            -0.4088035523891449,
            -0.287791907787323,
            -0.24675783514976501,
            -0.1717616617679596,
            -0.2769579291343689,
            -0.6384955644607544,
            -0.25641652941703796,
            -0.26410794258117676,
            -0.43424543738365173,
            0.3683469891548157,
            0.19054585695266724,
            0.3496745228767395,
            -0.0059381392784416676,
            0.06972677260637283,
            0.24459995329380035,
            0.03501395881175995,
            0.278993159532547,
            0.13900266587734222,
            0.06395687162876129,
            0.05518845096230507,
            0.14980784058570862,
            0.15278196334838867,
            0.14179357886314392,
            -0.05052412301301956,
            0.08314230293035507,
            0.040906742215156555,
            -0.0423433892428875,
            -3.364677695572027e-06,
            -0.12237822264432907,
            0.02308729663491249,
            -0.11263895779848099,
            0.06942269206047058,
            0.011289956048130989,
            -0.06447795778512955,
            0.06715210527181625,
            0.028212985023856163,
            0.28653812408447266,
            0.061773885041475296,
            0.1291617751121521,
            0.3601168692111969,
            -0.11530449241399765,
            -0.1037939265370369,
            0.361411452293396,
            -0.10471691936254501,
            -0.24639995396137238,
            -0.19086812436580658,
            0.17778462171554565,
            0.06431151926517487,
            -0.05389764904975891,
            0.08438464999198914,
            -0.009800055995583534,
            -0.03338822349905968,
            0.05387584865093231,
            0.0875716581940651,
            -0.004120856057852507,
            -0.016131484881043434,
            -0.06136331334710121,
            -0.06926919519901276,
            -0.106132872402668,
            -0.1338440328836441,
            -0.19202274084091187,
            -0.20650768280029297,
            -0.14926987886428833,
            0.1120031476020813,
            0.30534628033638,
            0.36440104246139526,
            0.4826976954936981,
            0.5138347744941711,
            0.24354435503482819,
            0.34119778871536255,
            0.42993858456611633,
            0.01070156879723072,
            0.494600385427475,
            0.17461149394512177,
            0.22881343960762024,
            0.060115132480859756,
            0.08919884264469147,
            -0.011047987267374992,
            0.09243223071098328,
            0.09400440752506256,
            0.0028346909675747156,
            0.14261494576931,
            -0.021840045228600502,
            -0.012985803186893463,
            0.1256287395954132,
            0.04368474334478378,
            -0.024292901158332825,
            -0.110132597386837,
            0.029739966616034508,
            -0.06297092884778976,
            -0.03238096833229065,
            -0.12728385627269745,
            -0.15339675545692444,
            0.16410255432128906,
            -0.2398386299610138,
            -0.11240246146917343,
            0.1998363435268402,
            -0.10691750794649124,
            -0.0786609873175621,
            0.05652454122900963,
            -0.02210603654384613,
            0.012177870608866215,
            -0.10821152478456497,
            -0.03259047120809555,
            0.056776225566864014,
            -0.141146719455719,
            -0.11697077751159668,
            0.021340155974030495,
            0.02064388245344162,
            0.1811593621969223,
            0.1577824056148529,
            0.268225759267807,
            0.2685850262641907,
            -0.004285511560738087,
            0.29570305347442627,
            0.19696196913719177,
            -0.17998084425926208,
            0.04081704840064049,
            0.060606177896261215,
            -0.11600536853075027,
            0.04401050880551338,
            0.17998161911964417,
